tree
version=v3
num_class=1
num_tree_per_iteration=1
label_index=0
max_feature_idx=59
objective=binary sigmoid:1
feature_names=userID assessmentItemID testId Timestamp KnowledgeTag hour dow elapsed grade mid problem_number test_mean test_sum tag_mean tag_sum ass_mean ass_sum prb_mean prb_sum hour_mean hour_sum dow_mean dow_sum tag_elp tag_elp_o tag_elp_x ass_elp ass_elp_o ass_elp_x prb_elp prb_elp_o prb_elp_x user_correct_answer user_total_answer user_acc Grade_o GradeCount GradeAcc GradeElp GradeMElp problem_count tag_count RepeatedTime prior_KnowledgeTag_frequency problem_position solve_order retest solved_disorder last_problem answer_delta tag_delta test_delta assess_delta left_asymptote elo_prob cum_correct prior_relative_assess_ac_sum prior_relative_answer_ac_sum prior_relative_tag_ac_sum prior_relative_test_ac_sum
feature_infos=[0:7441] [0:9453] [0:1536] [1577838777:1609260363] [0:911] [0:23] [0:6] [0:649] [0:8] [1:198] [0:12] [0.330625:0.95663775850567045] [94:2980] [0.17599999999999999:0.97285714285714275] [21:11899] [0.0433333333333333:0.99666666666666681] [5:345] [0.2007434944237918:0.74991593926107247] [54:278785] [0.52884749061587655:0.71572736250695035] [6258:107001] [0.60320607738363485:0.67651794216408556] [83162:306166] [4.0949720670391061:112.36781609195404] [4.709090909090909:142.36051502145924] [0.77272727272727271:88.186851211072664] [0:195.88673139158576] [0:256.48214285714283] [0:587] [15.788979300883646:129.49442379182156] [16.632053374464192:182.11111111111111] [13.260890609874153:116.27906976744184] [0:1473] [0:1845] [0:1] [0:1079] [0:1261] [0:1] [0:97662] [0:334.75] [2:13] [1:8] [0:17.087999298816467] [0:91] [0.0769230769230769:1] [1:16] [0:1] [0:1] [-1:0] [-0.79848832839186534:0.55873745427258226] [-0.978494623655914:0.80978260869565211] [-0.95785123966942165:0.68292682926829262] [-0.98892988929889303:0.90909090909090917] none [0.0038041031379647001:0.99815371786849361] [0:1] [-994.62273377684983:575.82302686192759] [-1002.629837058908:554.79818514702731] [-825.29316597057084:542.06612537583862] [-994.56945508832439:575.93858577432036]
tree_sizes=3467 3582 3588 3580 3566 3563 3590 3585 3587 3588 3604 3571 3580 3578 3566 3597 3587 3553 3597 3583 3576 3591 3606 3564 3565 3581 3564 3571 3576 3559 3596 3549 3588 3604 3598 3620 3564 3567 3561 3554 3556 3563 3618 3558 3570 3558 3585 3615 3554 3608

Tree=0
num_leaves=31
num_cat=0
split_feature=54 42 42 54 54 52 55 55 52 36 55 15 42 15 49 37 37 15 15 15 54 37 15 37 37 37 37 55 37 15
split_gain=338915 77685.9 44094.6 27680.2 22234.2 22172.5 12799.1 10241.4 10228.1 8270.24 6919.41 4707.92 4556.29 4131.94 3915.18 3873.46 3606.86 2845.84 2640.04 2594.44 2589.51 2304.7 1884.52 2038.35 1829.05 1810.12 1597.92 1590.57 1530.97 1496.45
threshold=0.62714253168118284 2.602003343538398 1.8688348091416842 0.82949618718760487 0.37013974586587833 -0.22622322137000786 0.78888888888888908 0.75961538461538469 -0.22622322137000786 1.0000000180025095e-35 0.67708333333333337 0.84619047619047627 2.524928003624769 0.35225000000000001 -0.58868017184099064 0.36942364050797788 0.58109061106240245 0.71171428571428585 0.49708333333333338 0.52041666666666686 0.80774003549593443 0.38472751738057864 0.36090452261306533 0.59987212276214852 0.797824071334162 0.72358986012220383 0.77502783964365263 0.78888888888888908 0.57696728558797539 0.67690476190476201
decision_type=2 2 2 2 2 2 2 2 2 2 2 2 2 2 2 2 2 2 2 2 2 2 2 2 2 2 2 2 2 2
left_child=1 6 5 8 10 9 14 15 12 -2 22 16 -4 -12 -1 -6 -5 24 -9 -17 27 -14 -3 -24 -10 -8 -21 -7 -13 -23
right_child=2 4 3 11 7 20 25 18 17 -11 13 28 21 -15 -16 19 -18 -19 -20 26 -22 29 23 -25 -26 -27 -28 -29 -30 -31
leaf_value=0.25516132664910512 0.33618680578688465 0.26866747845875932 0.28600127558698696 0.32229834588656486 0.28660159817762826 0.29361895840563379 0.29191698245689829 0.31447001293444687 0.32539593901363112 0.26637461453451211 0.2856891882831406 0.34026973525321547 0.29950662639634024 0.31071274600865073 0.27041388580299852 0.2996138658519264 0.34312155913932518 0.33962845070594094 0.32855297633265135 0.30994022951788686 0.34160059889394695 0.31585532912363246 0.2785410936780755 0.29969798174087198 0.33520350080962569 0.31699422594357096 0.32759099000880065 0.32770732744930531 0.35151915603359374 0.32892532811551628
leaf_weight=13749.787533685565 1201.9954397529364 6680.2903659194708 2755.8826771080494 5655.5977342128754 6494.8461024016142 1480.8402896523476 5082.5297296345234 13802.254691168666 24555.308156713843 9013.269661590457 6723.2591586858034 8459.1983864456415 3049.4273771643639 10668.246637716889 44754.937636166811 13682.620526045561 64386.926748022437 33813.047633990645 20944.120352014899 13654.577734977007 4778.3559071570635 10452.950370803475 9480.4987450391054 4067.1093111038208 23031.725225836039 2784.6039227992296 4189.0049916356802 2025.8655031621456 71221.226313278079 11497.092035025358
leaf_count=60799 5315 29539 12186 25008 28719 6548 22474 61031 108579 39855 29729 37405 13484 47173 197898 60502 284707 149515 92611 60378 21129 46221 41921 17984 101842 12313 18523 8958 314927 50838
internal_value=0.319284 0.292229 0.336524 0.339188 0.305081 0.299237 0.270855 0.313148 0.329614 0.274589 0.289476 0.346168 0.316509 0.301039 0.266829 0.304182 0.34144 0.334083 0.322959 0.307804 0.329627 0.319872 0.279534 0.284893 0.330143 0.300793 0.314084 0.313312 0.350325 0.322701
internal_weight=0 176759 277379 258878 110387 18500.3 66371.9 72767.4 109155 10215.3 37619.4 149723 27755.4 17391.5 58504.7 38021 70042.5 81400.1 34746.4 31526.2 8285.06 24999.5 20227.9 13547.6 47587 7867.13 17843.6 3506.71 79680.4 21950
internal_count=2008111 781594 1226517 1144712 488110 81805 293484 321764 482665 45170 166346 662047 122729 76902 258697 168122 309715 359936 153642 139403 36635 110543 89444 59905 210421 34787 78901 15506 352332 97059
shrinkage=0.5


Tree=1
num_leaves=31
num_cat=0
split_feature=54 42 42 54 54 52 55 55 52 36 55 15 42 37 49 37 15 15 15 54 37 15 37 15 37 37 37 37 55 52
split_gain=304399 70949.3 37286.2 23430.7 21664.6 18856.3 10689.9 9921.79 8658.31 7024.68 6340.22 4377.4 3791.03 3732.78 3483.1 3281.03 2960.27 2561.35 2422.49 2155.18 2082.82 2028.88 2308.68 2013.94 1989.46 1594.37 1533.57 1485.06 1474.76 1417.61
threshold=0.64191568535942545 2.524928003624769 1.8688348091416842 0.83171737629315212 0.37563448905725721 -0.22622322137000786 0.83974358974358987 0.75961538461538469 -0.22622322137000786 1.0000000180025095e-35 0.75961538461538469 0.84619047619047627 2.4414009612931857 0.64105024853585324 -0.58868017184099064 0.58109061106240245 0.34068273092369489 0.49708333333333338 0.72696969696969715 0.84496130809903058 0.60850060216780422 0.36090452261306533 0.67981375853426684 0.5445000000000001 0.41675665946724266 0.80014367816091969 0.29634759413152773 0.41675665946724266 0.78888888888888908 0.41185719570847212
decision_type=2 2 2 2 2 2 2 2 2 2 2 2 2 2 2 2 2 2 2 2 2 2 2 2 2 2 2 2 2 2
left_child=1 6 5 8 10 9 14 13 12 -2 21 15 -4 26 -1 -5 -12 29 25 28 -14 -3 -23 -15 -8 -10 -6 -13 -7 -9
right_child=2 4 3 11 7 19 24 17 18 -11 16 27 20 23 -16 -17 -18 -19 -20 -21 -22 22 -24 -25 -26 -27 -28 -29 -30 -31
leaf_value=-0.04417772128605299 0.012520636299719886 -0.034162013081029022 -0.024611972835563798 0.0021999821553532568 -0.025237148494796462 -0.015250633370300911 -0.028281820038298718 -0.0083456008225388095 0.0052019309097419298 -0.036505872457279875 -0.022638190582573024 0.0092516911472532784 -0.0067162682643513022 -0.010123162179359334 -0.033624342691606357 0.017308205157826335 -0.0053803768224939168 0.0069427963088720072 0.015256100147236818 0.017904051777877485 0.004843096347266488 -0.026654528799899498 -0.009717402606061732 0.0017477954256402495 -0.0050455310230770236 0.012067339659076675 -0.013074006107355339 0.023103509532146294 0.0079327608316050631 0.0035370361127220152
leaf_weight=14358.608241781592 1165.2631237506866 8468.1742894351482 2256.9600495398045 5499.6592641472816 4702.6681070774794 1641.7820727676153 1756.1272830665112 8060.3651761561632 25179.789180338383 8688.531575948 5361.4891337901354 2823.5194007754326 8426.5902128517628 10609.140700668097 46930.848764553666 62282.064126372337 10033.753024578094 23142.072897493839 29829.658285781741 3962.8069974482059 15672.175178527832 12555.34603959322 3652.4251561909914 9544.3610219061375 4937.6589966714382 22535.262139081955 16192.641942456365 74960.927249342203 2338.9173367917538 6279.504293680191
leaf_count=61292 5208 36441 9790 24364 20405 7185 7644 35551 111867 37279 23253 12653 37169 46447 201867 279628 44121 102930 133628 17774 69437 54363 15984 42177 21653 100679 70946 338262 10416 27698
internal_value=0 -0.0183681 0.0128402 0.0147107 -0.0096144 -0.0133799 -0.0336396 -0.00389004 0.00790918 -0.0307082 -0.0208329 0.0195655 -0.00137509 -0.0102585 -0.0360967 0.0160824 -0.0113905 0.0030845 0.0110647 0.00811558 0.000801145 -0.026724 -0.0228377 -0.00450128 -0.0111416 0.00844438 -0.0158114 0.0226007 -0.0016289 -0.00314213
internal_weight=0 186585 267264 249467 118602 17797.3 67983.2 78530.8 103900 9853.79 40071.2 145566 26355.7 41048.8 61289.5 67781.7 15395.2 37481.9 77544.7 7943.51 24098.8 24675.9 16207.8 20153.5 6693.79 47715.1 20895.3 77784.4 3980.7 14339.9
internal_count=2008111 812772 1195339 1117477 520316 77862 292456 346154 462570 42487 174162 654907 116396 179975 263159 303992 67374 166179 346174 35375 106606 106788 70347 88624 29297 212546 91351 350915 17601 63249
shrinkage=0.01875


Tree=2
num_leaves=31
num_cat=0
split_feature=54 42 42 54 54 52 55 52 55 36 55 15 42 15 37 49 37 15 15 37 54 37 37 54 37 15 37 55 15 49
split_gain=274096 61525.6 34080.6 22122.2 18607.8 16622.1 10079.6 8809.34 8310.18 6113.11 5824.88 4011.99 3877.09 3276.01 2807.61 2791.34 2744.98 2687.87 2600.17 2217.78 1989.63 1553.12 1552.44 1389.7 1367.53 1367.12 1285.04 1279.05 1264.89 1264.68
threshold=0.64191568535942545 2.602003343538398 1.8688348091416842 0.85155997101038616 0.38580664389267355 -0.22622322137000786 0.78888888888888908 -0.16061591379356671 0.70294117647058829 1.0000000180025095e-35 0.63068181818181823 0.35225000000000001 2.524928003624769 0.86366666666666669 0.69601136363636373 -0.58868017184099064 0.54387227060456911 0.70827135678391973 0.45967479674796752 0.56076057210719277 0.83171737629315212 0.72358986012220383 0.80014367816091969 0.22871093093402586 0.28892250798453517 0.73171428571428587 0.77785840993388178 0.78888888888888908 0.52041666666666686 -0.6729033999405919
decision_type=2 2 2 2 2 2 2 2 2 2 2 2 2 2 2 2 2 2 2 2 2 2 2 2 2 2 2 2 2 2
left_child=1 6 5 7 10 9 15 12 14 -2 23 -12 -4 16 24 -1 -5 22 -10 -14 27 -8 -9 -3 -6 -21 -13 -7 -16 -18
right_child=2 4 3 13 8 20 21 17 18 -11 11 26 19 -15 28 -17 29 -19 -20 25 -22 -23 -24 -25 -26 -27 -28 -29 -30 -31
leaf_value=-0.038510800658464087 0.011406656741299748 -0.030967409537846199 -0.019688992764868359 0.0014044585764270306 -0.022469901935598963 -0.014317401480532028 -0.016785739225447117 0.0047091335204446534 -0.0048451997989559445 -0.032110860022839659 -0.021358557321738518 -0.0097653148037708422 -0.006563618216013662 0.021406993202398254 -0.0091531241450862316 -0.029731027316123395 0.0097679386923377968 0.014105431765808675 0.0050425103079668942 0.00098249919680107323 0.015805286840808633 -0.00082419113684338715 0.011165846212116278 -0.021264261758099017 -0.01123400430485596 0.010482576398920232 0.0015742576839234926 0.0068077010342171814 0.0024290483529216984 0.017615485264898381
leaf_weight=15059.846320509911 1152.4363732337952 7434.8273003548384 2966.4476395249367 3969.9930177032948 4224.452317610383 1564.5843033641577 5419.7338739335537 24179.327425763011 11767.09049923718 8891.6458488702774 8373.49154086411 8960.5811539292336 7453.0387151241302 63601.204062491655 5363.6276339888573 47674.247041240335 7387.9387129098177 40309.998101934791 29423.274128690362 11897.194431766868 4166.8898084312677 2989.3790842592716 22930.480745092034 12521.897976949811 18057.653661593795 8011.2103960961103 4877.8386720716953 2151.3790261894464 6705.9344162046909 53420.29159066081
leaf_count=62638 5208 31449 12753 17694 18012 6759 23321 107948 51676 37279 35672 39066 32748 293058 23277 200606 33735 183132 131069 52898 18975 13127 103629 53329 78480 35934 21364 9641 29686 243948
internal_value=0 -0.0163365 0.0117129 0.0134366 -0.00844792 -0.0119523 -0.0293887 0.00787135 -0.0031669 -0.0271178 -0.0179085 -0.0116455 -0.000384404 0.0185409 -0.00962363 -0.0318387 0.015727 0.0107355 0.00221783 0.00170854 0.00737094 -0.0111115 0.00785191 -0.0248791 -0.0133642 0.00480536 -0.00576828 -0.0020869 -0.00271799 0.016662
internal_weight=0 188854 264054 246127 117711 17926.9 71143.2 117748 75542 10044.1 42168.6 22211.9 30327.9 128379 34351.7 62734.1 64778.2 87419.8 41190.4 27361.4 7882.85 8409.11 47109.8 19956.7 22282.1 19908.4 13838.4 3715.96 12069.6 60808.2
internal_count=2008111 812772 1195339 1117477 513080 77862 299692 529042 332200 42487 180880 96102 134333 588435 149455 263244 295377 394709 182745 121580 35375 36448 211577 84778 96492 88832 60430 16400 52963 277683
shrinkage=0.0177778


Tree=3
num_leaves=31
num_cat=0
split_feature=54 42 37 54 54 42 55 36 55 52 42 55 55 15 15 49 37 15 15 15 37 28 16 52 42 55 37 2 15 15
split_gain=247497 57557.1 29517.8 18448.9 15553.9 9839.78 8751.76 8109.58 7338.27 6505.6 7342.88 6159.74 3751.49 3589.28 3075.71 2674.44 2659.37 2623.39 2269.41 2221.29 2323.07 1988.26 1818.78 1817.67 1852.66 1781.69 1750.08 1523.95 1240.45 1189.75
threshold=0.65655633148576287 2.524928003624769 0.56526635330983166 0.41621778506952617 0.85775872206650339 2.2499048351651334 0.83974358974358987 1.0000000180025095e-35 0.75961538461538469 -0.29324867990947939 2.2499048351651334 0.78888888888888908 0.78888888888888908 0.796904761904762 0.42412121212121218 -0.58868017184099064 0.39288247213779132 0.86366666666666669 0.73171428571428587 0.41633333333333339 0.43105608849710481 34.289184453647664 153.50000000000003 -0.51877251471147601 2.2499048351651334 0.6515151515151516 0.40912342307192096 1163.5000000000002 0.744857142857143 0.40900000000000003
decision_type=2 2 2 2 2 2 2 2 2 2 2 2 2 2 2 2 2 2 2 2 2 2 2 2 2 2 2 2 2 2
left_child=1 6 5 11 9 7 15 -2 16 10 -4 19 -9 25 -13 -1 -5 23 27 -3 -21 -18 -10 24 -6 -7 -8 -11 -12 -17
right_child=2 3 4 8 17 13 26 12 22 18 28 14 -14 -15 -16 29 21 -19 -20 20 -22 -23 -24 -25 -26 -27 -28 -29 -30 -31
leaf_value=-0.038037140672624634 0.01221516878575651 -0.027709558866407975 -0.027936348931967649 -0.018389950853221565 -0.025029007650022719 -0.0090598498957950736 -0.025332806411204573 -0.03115738950617019 -0.00059693878554906382 0.0073171372302258189 0.00086981561357432646 -0.015794420261361367 0.0030116986459653569 0.010371387728904349 -0.00090932894572412297 -0.033089114487026852 -0.00049715381855994537 0.022541442887383925 0.015943487345760364 -0.025570628604787628 -0.011607660199662853 -0.0098371298867088435 0.0078051475562754217 0.018003989839528205 0.010478210061630343 0.0049456176192634906 -0.003914824892428127 0.014589472568232665 0.010814739780114099 -0.026978405479564177
leaf_weight=15463.148052766919 2497.0186707675457 13656.508817747235 2789.0059854239225 6894.5797350853682 570.88275676965714 8085.2412052601576 1793.8230453133583 7539.0853520780802 17016.307764798403 33753.587189689279 11501.208112031221 10111.14691567421 1328.7312165349722 12775.238355189562 9433.4815442115068 17167.393633753061 14777.371523678303 57025.546451196074 31940.944399982691 7311.3664800971746 9808.9124156087637 17504.101584389806 19365.351401612163 51425.883534148335 5434.4248855561018 5277.7614879757166 5315.881215184927 14474.559572592378 7150.9622902721167 32233.444794803858
leaf_count=63183 11336 57077 11590 29228 2449 35663 7575 31550 75391 153227 51203 43228 6057 58321 41387 71055 64405 268828 147400 30637 41806 76296 86998 239000 25106 23714 23104 65480 32374 133443
internal_value=0 -0.0156931 0.0122875 -0.00804617 0.0149527 -0.00306768 -0.0290674 -0.0176329 -0.00218821 0.00961351 0.000439579 -0.0168419 -0.0260376 0.00326524 -0.00860993 -0.031232 -0.00781926 0.0196927 0.0120671 -0.0220696 -0.0175707 -0.0055616 0.00387535 0.0168641 0.00710279 -0.00352834 -0.00931872 0.00949976 0.00468255 -0.029102
internal_weight=0 197853 253570 125879 216067 37503.1 71973.7 11364.8 75557.7 101610 21441.2 50321.4 8867.82 26138.2 19544.6 64864 39176.1 114457 80169.1 30776.8 17120.3 32281.5 36381.7 57431.2 6005.31 13363 7109.7 48228.1 18652.2 49400.8
internal_count=2008111 844813 1163298 546453 996657 166641 298360 48943 332318 461274 95167 214135 37607 117698 84615 267681 169929 535383 366107 129520 72443 140701 162389 266555 27555 59377 30679 218707 83577 204498
shrinkage=0.01875


Tree=4
num_leaves=31
num_cat=0
split_feature=54 42 37 54 15 42 36 55 55 55 52 42 15 15 55 42 49 54 37 15 15 55 37 37 52 52 55 52 56 37
split_gain=223972 52456.6 26297.5 17695.6 13776.1 9355.54 7420.19 7186.03 6520.69 6254.36 6234.36 5323.48 4181.67 3602.61 2989.13 2848.21 2464.12 2246.18 2234.07 2229.44 1931.13 1796.48 1735.13 1550.51 1498.87 1493.7 1402.96 1397.82 1289.54 1178.46
threshold=0.66365008105761791 2.4414009612931857 0.58109061106240245 0.43120628453520232 0.79071428571428581 2.1383330595080285 1.0000000180025095e-35 0.83974358974358987 0.6515151515151516 0.63068181818181823 -0.31369455463397034 2.3502401828962087 0.41225000000000006 0.796904761904762 0.70294117647058829 1.4978661367769959 -0.58868017184099064 0.8029086341422268 0.69184218224367422 0.49708333333333338 0.8907142857142859 0.6515151515151516 0.73734558487113022 0.42504355400696869 0.43936224166349697 0.33043428938760849 0.73863636363636376 -0.60193546374709517 1.6297768167644198 0.78792673571154592
decision_type=2 2 2 2 2 2 2 2 2 2 2 2 2 2 2 2 2 2 2 2 2 2 2 2 2 2 2 2 2 2
left_child=1 7 5 9 10 6 -2 16 18 22 11 -4 24 21 -8 26 -1 -12 -5 25 27 -7 -3 -9 -11 -10 -6 -17 -14 -21
right_child=2 3 4 8 15 13 14 23 19 12 17 -13 28 -15 -16 20 -18 -19 -20 29 -22 -23 -24 -25 -26 -27 -28 -29 -30 -31
leaf_value=-0.056821750781504407 0.018862645894500756 -0.038347202347599509 -0.039644447248654541 -0.019633109819698499 -0.056224921318166324 -0.013334440403029441 -0.047443624636914337 -0.037169210375332863 -0.014800262690639714 -0.033583900204588985 0.013941130990519437 0.0062884680604846132 -0.010950496033106629 0.016282757703805224 0.0010915207558322743 0.014395788270134231 -0.043223950489503164 0.02373651678291902 -0.0024330317993256222 0.0042859292156886891 0.035718594797949386 0.0080008438277872247 -0.016748807632776613 -0.0054357837599367563 -0.01316123243456066 0.00341762525448005 0.022859207747254758 0.029170604879282677 0.007046693485234316 0.016173155176018854
leaf_weight=15310.808947950602 2442.9264064729214 22257.030169829726 2562.983407497406 18906.729180857539 488.80586002767086 8591.9016235917807 7079.1017904728651 1872.9558876007795 7138.2208465784788 9438.6837920546532 40332.027565956116 16321.305305227637 9492.3105763196945 14253.235667526722 1322.0383581966162 6281.8661163300276 49607.244790762663 41905.990805387497 10209.57357865572 18770.358803614974 45502.874795690179 5806.2575179189444 3826.9065016955137 4857.3730084598064 4738.9940038472414 8849.3475391417742 329.80845193564892 53483.844112098217 5532.3974470049143 12003.807947844267
leaf_count=61824 11221 92234 10592 80756 2026 37662 29131 7809 31112 39699 184751 73835 41269 65806 6005 29124 202770 196480 44714 83958 219314 26231 16087 21077 20002 38959 1545 253709 24194 54215
internal_value=0 -0.0230212 0.0190089 -0.0118841 0.0232323 -0.00314888 -0.0265892 -0.0434096 -0.00259435 -0.0246338 0.0154071 5.4434e-05 -0.0152152 0.00572289 -0.0398059 0.0306912 -0.046431 0.0189326 -0.0136019 0.00425955 0.0311193 -0.00473069 -0.0351784 -0.0142668 -0.0267575 -0.0047164 -0.024363 0.0276177 -0.00432357 0.00892267
internal_weight=0 202813 246705 131164 207210 39495.5 10844.1 71648.4 75878 55286.3 101122 18884.3 29202.4 28651.4 8401.14 106087 64918.1 82238 29116.3 46761.7 105269 14398.2 26083.9 6730.33 14177.7 15987.6 818.614 59765.7 15024.7 30774.2
internal_count=2008111 860679 1147432 567199 971376 176056 46357 293480 333714 233485 465658 84427 125164 129699 35136 505718 264594 381231 125470 208244 502147 63893 108321 28886 59701 70071 3571 282833 65463 138173
shrinkage=0.0296296


Tree=5
num_leaves=31
num_cat=0
split_feature=54 42 52 42 54 54 55 37 55 15 15 37 36 55 37 15 27 37 15 15 54 15 28 15 42 37 52 49 8 1
split_gain=203085 49395.4 22787.4 20252.9 15616.4 10613.7 9281.29 5567.42 5532.23 4553.31 3206.62 3188.41 3131.6 3055.37 2326.16 2277.84 2231.85 2204.34 1774.47 1699.63 1605.67 1564.46 1545 1672.98 1435.79 1341.1 1270.06 1223.45 1111.83 1003.05
threshold=0.67741798885492466 2.6735537653587347 -0.34816250240510149 2.1383330595080285 0.44115723178457467 0.87216886667694926 0.78888888888888908 0.78613056383853086 0.75961538461538469 0.82351637764932573 0.38267857142857148 0.666904761904762 1.0000000180025095e-35 0.40833333333333338 0.64710188614245123 0.33416666666666672 70.240090968161169 0.37637429020176394 0.5445000000000001 0.73947791164658649 0.4261583070977133 0.86366666666666669 31.349803921568633 0.54708333333333348 2.1383330595080285 0.46810848725742343 0.34623709623709625 0.32709660005940805 5.5000000000000009 6625.5000000000009
decision_type=2 2 2 2 2 2 2 2 2 2 2 2 2 2 2 2 2 2 2 2 2 2 2 2 2 2 2 2 2 2
left_child=1 6 3 12 7 11 16 10 17 14 -3 24 -2 -12 -5 -9 -1 -6 29 27 -8 -7 -10 -24 -4 -11 -15 -13 -18 -19
right_child=2 4 5 9 8 21 20 15 22 25 13 19 -14 26 -16 -17 28 18 -20 -21 -22 -23 23 -25 -26 -27 -28 -29 -30 -31
leaf_value=-0.066695497560622583 0.029460121054693533 -0.06592109033735237 -0.020670812071243289 -0.017875004025226498 -0.043106969037448185 0.04520164235081444 -0.045853419359901282 -0.038675388529274768 0.030865373561514281 0.0034801044230478037 -0.054872174062419121 0.020352113314114718 -0.071395964556575972 -0.032033594730814179 0.01487884395806683 0.0050392067542837657 -0.097328176951254036 -0.034499843780010274 -0.00025523593893712275 0.042989399241929072 -0.0056592858289929706 0.058289238377508906 -0.0071708108949375959 0.017091931787556601 0.016853512157480141 0.042849691377035898 -0.0021972880734547197 0.037760014242921643 -0.075961468719204298 -0.0071792494162423448
leaf_weight=44245.56857407093 842.72502185404301 13625.480306908488 2915.2420921772718 8343.1784206926823 6000.6826708763838 43098.445399284363 4253.0760010033846 4413.9449701458216 8218.8476144075394 2533.543757557869 12516.564121216536 25796.887590333819 8878.0023078769445 10420.250209242105 15475.123183965683 9172.5743436664343 10969.33791950345 8473.816765755415 19104.321232795715 28288.738785356283 5975.7620995938778 48564.110536918044 12811.994522958994 15949.286562681198 20303.371351391077 14794.230861067772 5423.0367916375399 16580.705995902419 13683.021202683449 5566.4219299554825
leaf_count=179181 3943 56027 12873 36654 25071 207166 17949 18283 37088 11609 51605 119558 36313 44462 70615 39744 44118 36473 83699 135344 25912 239635 56878 72781 93891 71379 23326 77177 55393 23964
internal_value=0 -0.0355913 0.0319053 0.00225758 -0.0168315 0.0400331 -0.0668146 -0.0369831 -0.00212079 0.0175925 -0.0459859 0.028217 -0.0626524 -0.036408 0.00340568 -0.00916265 -0.0734128 -0.0152217 -0.0101731 0.0334986 -0.0223717 0.0521356 0.0117471 0.00628386 0.0121421 0.0370934 -0.0218209 0.0271631 -0.0854688 -0.0236683
internal_weight=0 210824 236414 50866.8 131697 185548 79126.8 55571.9 76125.4 41146.1 41985.3 93884.9 9720.73 28359.9 23818.3 13586.5 68897.9 39145.2 33144.6 70666.3 10228.8 91662.6 36980.1 28761.3 23218.6 17327.8 15843.3 42377.6 24652.4 14040.2
internal_count=2008111 891954 1116157 230513 569401 885644 322553 233447 335954 190257 175420 438843 40256 119393 107269 58027 278692 169207 144136 332079 43861 446801 166747 129659 106764 82988 67788 196735 99511 60437
shrinkage=0.05


Tree=6
num_leaves=31
num_cat=0
split_feature=54 42 37 54 54 55 55 52 52 42 42 15 37 37 36 15 49 52 15 28 15 15 55 37 49 15 28 37 52 42
split_gain=184257 45585.4 20578.6 15888.3 11759.4 8206.39 6407.61 5629.92 5377.22 5309.7 3844.05 3515.43 3221.62 2897.26 2550.94 2494.66 2100.66 2080.28 2032.64 1677.4 1658.14 1628.22 1744.19 1481.64 1393.05 1391.81 1338.87 1276.69 1208.98 1364.09
threshold=0.68444880834191602 2.4414009612931857 0.54387227060456911 0.3425996139220292 0.88017400525579481 0.6515151515151516 0.78888888888888908 -0.39162096951085756 -0.39162096951085756 2.3502401828962087 2.4414009612931857 0.49463449593884379 0.77502783964365263 0.63534873094338062 1.0000000180025095e-35 0.82077441077441093 -0.58868017184099064 0.41723181963982953 0.75951807228915669 30.888862179487184 0.88600095556617309 0.31225000000000008 0.42261904761904762 0.78792673571154592 0.32709660005940805 0.26450000000000007 33.258620689655181 0.73172957094534452 -0.52492236024844707 2.0126758453675748
decision_type=2 2 2 2 2 2 2 2 2 2 2 2 2 2 2 2 2 2 2 2 2 2 2 2 2 2 2 2 2 2
left_child=1 6 7 12 8 13 16 10 9 -4 14 17 21 -5 -2 -9 -1 -7 24 -15 28 -3 -23 26 -10 -14 -13 -8 29 -6
right_child=2 3 4 5 20 11 27 15 18 -11 -12 23 25 19 -16 -17 -18 -19 -20 -21 -22 22 -24 -25 -26 -27 -28 -29 -30 -31
leaf_value=-0.030520149571883103 0.010016873653617831 -0.026768157877665989 -0.021451569589156883 -0.012619235207526766 -0.024037658404222197 -0.0082577034804291894 -0.013265376565991997 -0.0017296276933130566 0.0066783830787051955 0.0045996303105328975 -0.0023188315649402165 0.0087174882529865959 -0.018503402477338636 0.0026342120353402445 -0.025239448947479037 0.012191676970762908 -0.023102999624198605 0.002615703633039305 0.014567426847735834 -0.0082239750689834766 0.020441944290973318 -0.022117937008286143 -0.01173446223484107 0.0091254106636543646 0.012563848156668332 -0.0023060018950500144 -0.00045669348909154178 0.0014974593094604276 0.016602362839992731 0.010226886161153362
leaf_weight=15883.355923503637 734.06608933210373 6591.8493693768978 2897.0001792758703 23440.8430416435 396.26973095536232 13761.624923691154 5538.1681862026453 9104.207177311182 33110.642895802855 16882.330932497978 7528.9901756197214 7004.6920065432787 2281.1402441561222 8448.3018568903208 5571.2537025511265 7354.7318025827408 50239.732555404305 9331.7782739698887 32543.790932923555 9612.9453562349081 41600.881713241339 9643.2154276818037 10883.143132686615 15594.61161865294 20629.693574517965 6327.223058372736 17812.088957950473 2781.1323894560337 46121.287021413445 5006.2985257953405
leaf_count=63598 3474 26696 11847 98232 1624 59351 23205 40790 154917 77529 33616 31515 9329 36897 22656 34998 202166 41066 158460 41401 211046 39117 45489 71354 97314 26880 79875 12111 227604 23954
internal_value=0 -0.0117839 0.0111159 -0.00583265 0.013192 -0.00234844 -0.0230346 -0.00253526 0.00914453 0.000784014 -0.0108947 0.00166925 -0.0160734 -0.00849614 -0.0211349 0.00449115 -0.0248847 -0.00386388 0.0110611 -0.00314497 0.0178019 -0.0190812 -0.0166126 0.00483121 0.00893768 -0.00659817 0.00213278 -0.00833018 0.0156703 0.00771364
internal_weight=0 215176 229481 140733 199188 105007 74442.4 30293.2 106063 19779.3 13834.3 63504.8 35726.6 41502.1 6305.32 16458.9 66123.1 23093.4 86284.1 18061.2 93124.7 27118.2 20526.4 40411.4 53740.3 8608.36 24816.8 8319.3 51523.9 5402.57
internal_count=2008111 908282 1099829 607202 964295 459691 301080 135534 500067 89376 59746 283161 147511 176530 26130 75788 265764 100417 410691 78298 464228 111302 84606 182744 252231 36209 111390 35316 253182 25578
shrinkage=0.0177778


Tree=7
num_leaves=31
num_cat=0
split_feature=54 54 55 42 42 52 42 15 55 55 15 37 54 37 52 28 37 42 49 42 37 28 28 36 37 15 15 15 37 15
split_gain=167762 29903.9 29213.2 18089.5 10210.1 8080.67 7785.56 6486.62 5441.69 5291.5 3715.21 3168.72 3080.87 2800.57 2752.35 2269.28 2179.39 1882.57 1850.54 1673.21 1644.16 1465.43 1350.53 1326.74 1321.7 1281.17 1213.79 1103.73 1025.39 1016.28
threshold=0.60029666981490903 0.8126832950696482 0.6515151515151516 2.2499048351651334 3.0677824455408698 -0.49929971988795513 2.1383330595080285 0.44808026755852842 0.78888888888888908 0.78888888888888908 0.84335341365461869 0.75512303686906868 0.32017181042846915 0.39288247213779132 0.43142231511894097 32.813750000000006 0.75016170763260037 2.2499048351651334 -0.58868017184099064 1.0000000180025095e-35 0.79594407032334358 44.659420289855071 25.10772946859904 1.0000000180025095e-35 0.80437171524128059 0.84619047619047627 0.58775000000000011 0.63633333333333353 0.36173341677096377 0.40900000000000003
decision_type=2 2 2 2 2 2 2 2 2 2 2 2 2 2 2 2 2 2 2 2 2 2 2 2 2 2 2 2 2 2
left_child=2 3 4 9 18 6 23 14 13 19 16 17 -6 -5 24 -15 -7 -9 -1 -2 28 -10 -19 -3 -4 -8 -17 -23 -14 -20
right_child=1 5 7 8 12 10 25 11 21 -11 -12 -13 20 15 -16 26 -18 22 29 -21 -22 27 -24 -25 -26 -27 -28 -29 -30 -31
leaf_value=-0.026318808099947619 0.00029221743267689642 0.01207275738005084 -0.016915790778627482 -0.010357898814428427 -0.017736671520272331 0.0070135940744251828 0.0037985764853749543 -0.013871039807075878 0.01064521618058922 0.002631192685409556 0.016995135342732347 0.0053960635269921769 -0.01534579747953204 0.0056218363189094673 -0.0037690391559990523 -0.0074196522127455674 0.013457536466958518 0.0073269920325032684 -0.023139019187511118 -0.020592232057079871 0.0015251977565149631 0.0019825413710237621 -0.0036290253503384329 -0.020209041565342128 -0.0079288479167230873 0.012138783542445412 0.0008257005771412538 0.0085282044033787099 -0.0078345215976949895 -0.018255902212195779
leaf_weight=15854.818929895759 1074.8591319471598 360.41941680014133 11863.464440926909 5373.4866459667683 12962.347011655569 19099.036174535751 9187.3735458105803 3924.1960784941912 26457.389230847359 3869.8298328816891 63754.030433759093 16275.673211291432 6342.5508350282907 21048.690011024475 11542.320957526565 6719.2377800345421 45314.50432357192 3467.5918954461813 17001.307796955109 11376.485228478909 3778.6242626607418 12947.90574888885 17006.780606493354 3404.895284190774 6476.3902913182974 9686.2900061309338 14292.394128918648 13440.211893871427 17462.742181181908 30457.770963713527
leaf_count=63787 4660 1725 49182 23005 52363 91713 42785 16035 125021 17670 328188 72958 25836 96198 48888 29839 224099 15312 68134 46002 16293 59805 74574 13952 27282 48536 64930 63702 73359 122278
internal_value=0 0.00799563 -0.0121746 0.00191067 -0.0175717 0.0127004 0.003888 -0.00422999 0.00445313 -0.0137105 0.014257 -7.17686e-05 -0.0113029 0.000519062 -0.00988996 0.00190867 0.0115469 -0.00371922 -0.0215862 -0.0187894 -0.00827948 0.00798432 -0.00177349 -0.017119 -0.0137422 0.00807891 -0.00181105 0.00531643 -0.00983578 -0.0200052
internal_weight=0 267407 174417 116600 103860 150807 22639 70556.4 100279 16321.2 128168 40674.2 40546.3 47433.8 29882.2 42060.3 64413.5 24398.6 63313.9 12451.3 27583.9 52845.5 20474.4 3765.31 18339.9 18873.7 21011.6 26388.1 23805.3 47459.1
internal_count=2008111 1281830 726281 530832 422050 750998 106998 304231 462500 68332 644000 178879 167851 213972 125352 190967 315812 105921 254199 50662 115488 248528 89886 15677 76464 91321 94769 123507 99195 190412
shrinkage=0.016


Tree=8
num_leaves=31
num_cat=0
split_feature=54 42 37 54 15 42 55 27 55 52 55 42 15 15 37 49 42 37 15 37 54 16 37 15 55 49 37 54 37 2
split_gain=170767 39550.4 21819.8 13290.7 11779.8 7430.1 6096 5694.99 5328.5 5075.6 4370.23 4322.74 2976.4 2154.52 2082.77 2058.43 2009.6 1966.68 1836.22 1788.35 1477.37 1466.16 1434.14 1340.01 1333.97 1150.82 1117.61 1109.07 1056.62 995.281
threshold=0.66721008468121001 2.524928003624769 0.58828725836624407 0.41621778506952617 0.80366666666666686 2.2499048351651334 0.83974358974358987 28.103469320689168 0.75961538461538469 -0.29324867990947939 0.78888888888888908 2.524928003624769 0.77125645438898471 0.44808026755852842 0.78792673571154592 -0.58868017184099064 1.4978661367769959 0.83348402652200126 0.41633333333333339 0.43105608849710481 0.91662162775563438 162.50000000000003 0.40912342307192096 0.54013422818791967 0.6515151515151516 -0.58868017184099064 0.28892250798453517 0.34812107602725034 0.28209147174664412 1163.5000000000002
decision_type=2 2 2 2 2 2 2 2 2 2 2 2 2 2 2 2 2 2 2 2 2 2 2 2 2 2 2 2 2 2
left_child=1 6 5 10 9 7 15 -2 14 11 18 -4 24 -12 23 -1 -6 29 -3 -20 -18 -10 -8 -5 -7 -9 -25 -17 -14 -11
right_child=2 3 4 8 16 12 22 25 21 17 13 -13 28 -15 -16 27 20 -19 19 -21 -22 -23 -24 26 -26 -27 -28 -29 -30 -31
leaf_value=-0.020621317842790574 0.0034148156400046394 -0.015363640475080103 -0.013124364207151263 -0.0085327672958627008 -0.0085530698619635318 -0.0057437065229513258 -0.014293935158139079 -0.020506298539934072 0.00013939604355229135 0.0047100764062499127 -0.007950089054510872 0.0029450558901910782 -0.0020039813812542254 0.00041014995146051254 0.0015258697288187799 -0.017135442482005832 0.010622976187511644 0.0095864334840135013 -0.013903988076839922 -0.0058574874847553433 0.013832928669681178 0.0050499733334315178 -0.0016465662991926194 -0.010390585818704043 0.0026378834605564382 -0.010970261963366632 -0.0021873694261158915 -0.013438927863211754 0.0071287232682615727 0.0090441345577265929
leaf_weight=16108.15041346848 3612.0709261000156 14072.584430322051 3091.2979002743959 13301.393037676811 718.95730873942375 7298.6073666810989 1869.2403763383627 3783.6019790768623 20709.197813808918 35078.42984379828 11755.560898721218 16999.261950016022 2309.3990855515003 8159.7667542994022 8350.7584775239229 28673.951288744807 39847.401415094733 37674.665728136897 7555.9019550532103 10064.296154513955 51175.674243479967 17552.27490478754 5591.552582025528 3056.4266767799854 4999.1947413086891 4142.1941223442554 17190.494783759117 22739.7477722615 13853.299984753132 10836.533426523209
leaf_count=64536 16582 57077 12721 56002 3172 31952 7668 15344 92197 167742 49001 78137 10615 35614 36711 114997 198692 182886 30637 41806 263648 80609 24009 12524 22889 17477 73927 91356 66104 51479
internal_value=0 -0.00828992 0.00727908 -0.00416576 0.00900074 -0.00113253 -0.0155374 -0.00959398 -0.000980411 0.00611387 -0.00911341 0.000472483 0.00229773 -0.00452471 -0.00406013 -0.0167221 0.0122633 0.00746976 -0.0119969 -0.00930799 0.0124277 0.0023921 -0.00481526 -0.00545058 -0.0023365 -0.0155226 -0.00342571 -0.0155005 0.0058238 0.00573297
internal_weight=0 206751 235421 131769 195422 39998.4 74982.6 11537.9 80160.5 103680 51608.1 20090.6 28460.5 19915.3 41899.1 67521.8 91742 83589.6 31692.8 17620.2 91023.1 38261.5 7460.79 33548.3 12297.8 7925.8 20246.9 51413.7 16162.7 45915
internal_count=2008111 868671 1139440 566105 958477 180963 302566 49403 351970 492965 214135 90858 131560 84615 179164 270889 465512 402107 129520 72443 462340 172806 31677 142453 54841 32821 86451 206353 76719 219221
shrinkage=0.0125


Tree=9
num_leaves=31
num_cat=0
split_feature=54 42 37 54 15 55 52 52 52 49 42 42 15 36 37 49 15 15 37 52 42 15 37 15 37 54 15 37 36 15
split_gain=154023 39284.3 17393.8 13689.2 9718.49 6291.2 5558.57 4758.71 4750.76 4223.2 3848.86 3278.49 2724.09 2519.29 2194.76 2039.21 1949.56 1937.27 1822.02 1778.59 1761.69 1593.95 1376.87 1148.94 1140.68 1126.25 1056.63 1041.07 1012.59 981.45
threshold=0.69460774284363069 2.524928003624769 0.58109061106240245 0.45081636945324965 0.81827042522694715 0.83974358974358987 -0.32133604737231669 0.024640760979558755 0.11185729981837342 -0.6729033999405919 2.4414009612931857 2.3502401828962087 0.39336717428087992 1.0000000180025095e-35 0.80760999886890639 -0.58868017184099064 0.83071428571428585 0.66064516129032269 0.68441439617222022 0.32318821401790837 1.4978661367769959 0.4360451127819549 0.50030376670716903 0.90587727708533083 0.42504355400696869 0.34812107602725034 0.84619047619047627 0.7927546359421872 1.0000000180025095e-35 0.67690476190476201
decision_type=2 2 2 2 2 2 2 2 2 2 2 2 2 2 2 2 2 2 2 2 2 2 2 2 2 2 2 2 2 2
left_child=1 5 6 8 9 15 10 27 21 11 13 -4 -10 -2 29 28 -8 19 -14 -9 -6 -3 -7 -22 -23 -17 -12 -5 -1 -11
right_child=2 3 4 7 20 22 16 17 12 14 26 -13 18 -15 -16 25 -18 -19 -20 -21 23 24 -24 -25 -26 -27 -28 -29 -30 -31
leaf_value=-0.0035169613694231274 0.012976700639777624 -0.026598504880993763 -0.031945488941692149 -0.01016338975101619 -0.014772596935532872 -0.020125908254223095 0.00087215640889315937 -0.0044065981002756856 -0.016239901036633798 0.0054002006773116807 -0.0070372798736070379 0.0036463579666831114 -0.0096174992602552408 -0.028093496523968031 0.016449498851766421 -0.028747041231432038 0.015539782013784873 0.0099763168421112287 0.0040318444160888801 0.0048882223949961471 0.019859148718491336 -0.023361295255423964 -0.00069656189042888595 0.025265226949350725 -0.010882168148158764 -0.022219271450649281 0.0083964727397779614 0.0016273396132361841 -0.035608386061320427 0.012413256735896567
leaf_weight=500.37401819229126 838.84382608532906 13005.478928893805 1424.7183909714222 21642.464381679893 649.88775290548801 2711.1373564898968 10275.87310282886 18192.395986780524 13097.000089630485 17374.547317236662 5912.1552545577288 12414.899696528912 10141.947727665305 6108.8676466196775 47105.158345937729 28739.560296460986 7927.1451587975025 15623.682573974133 9220.0979875922203 23044.283916860819 49952.703252896667 6103.4449639320374 5366.2626436799765 31754.7638155967 8879.6088277846575 23911.372054427862 3479.918933942914 4460.178269892931 16384.998903587461 22767.387094199657
leaf_count=2037 4040 52668 5818 91963 2881 11158 46843 81259 53692 81658 25776 57722 42672 24749 232465 114997 39236 71999 40182 102938 257568 24661 23263 169107 37138 95938 16569 19679 65923 111512
internal_value=0 -0.0130462 0.0132797 -0.00615406 0.0160036 -0.0257812 -0.00118613 -0.000293586 -0.0141974 0.0113868 -0.010595 -1.76419e-05 -0.00841245 -0.0231348 0.0131959 -0.0279375 0.00725969 0.00331243 -0.00311776 0.000787624 0.0216703 -0.0209064 -0.00721792 0.0219602 -0.0159656 -0.0257825 -0.00131882 -0.0081487 -0.0346574 0.00937781
internal_weight=0 221024 217987 143411 183444 77613.7 34542.8 82963 60447.6 101087 16339.8 13839.6 32459 6947.71 87247.1 69536.3 18203 56860.4 19362 41236.7 82357.4 27988.5 8077.4 81707.5 14983.1 52650.9 9392.07 26102.6 16885.4 40141.9
internal_count=2008111 932167 1075944 618851 918731 313316 157213 367838 251013 489175 71134 63540 136546 28789 425635 278895 86079 256196 82854 184197 429556 114467 34421 426675 61799 210935 42345 111642 67960 193170
shrinkage=0.0222222


Tree=10
num_leaves=31
num_cat=0
split_feature=54 42 37 54 42 15 55 55 27 55 15 49 16 42 49 15 37 55 37 28 15 49 54 37 37 15 37 15 37 28
split_gain=140171 36083.4 15974 12941.4 8315.89 7444.52 5180.06 4691.86 4585.31 4525.1 3837.78 2550.44 2111.63 2014.37 1962.66 1895.64 1864.39 1651.03 1612.6 1434.13 1518.18 1424.34 1406.53 1241.08 1195.49 1179.46 1025.63 970.926 970.18 1240.16
threshold=0.69787785815667813 2.4414009612931857 0.666904761904762 0.45081636945324965 2.0126758453675748 0.81827042522694715 0.83974358974358987 0.75961538461538469 22.854357726620503 0.78888888888888908 0.796904761904762 -0.6729033999405919 121.50000000000001 2.2499048351651334 -0.58868017184099064 0.4360451127819549 0.69601136363636373 0.70294117647058829 0.43817328854395926 30.888862179487184 0.66064516129032269 -0.58868017184099064 0.83171737629315212 0.40912342307192096 0.30346543146337285 0.64056451612903242 0.34445287472601588 0.44808026755852842 0.29634759413152773 40.01761642156864
decision_type=2 2 2 2 2 2 2 2 2 2 2 2 2 2 2 2 2 2 2 2 2 2 2 2 2 2 2 2 2 2
left_child=1 6 4 9 8 11 14 16 -2 15 17 13 -11 -4 -1 -3 28 26 -17 -9 -21 -10 -13 -8 -12 -18 -6 -16 -5 -30
right_child=2 3 5 7 10 -7 23 19 21 12 24 22 -14 -15 27 18 25 -19 -20 20 -22 -23 -24 -25 -26 -27 -28 -29 29 -31
leaf_value=-0.022281323197461792 0.0067168885487421948 -0.015826836908876998 -0.020347264895135511 -0.012538070319906936 -0.012201761488470211 0.014589946611010839 -0.015198786273870038 0.0085919958083234115 -0.022509629317347988 -0.0082656147054716144 -0.0014401703328445613 0.0071379352927519795 0.00051545699720209398 0.0033191410750458938 -0.018563569662427139 -0.014116267594419165 -0.0024083830020033758 0.0049116644667668418 -0.0055506320590350943 -8.2811607014959053e-05 0.0070584452763480113 -0.0097826876423310703 0.011169770951084136 -0.0013319133898807907 0.0097085232556224314 0.0057920220715250957 -0.0014358688349780742 -0.014503609539697404 -0.0020254239103729963 -0.0093248101165721142
leaf_weight=16253.379573762417 2621.0878086388111 17732.891395553946 854.7055090367794 4286.3037212193012 2401.2464959919453 70545.186572536826 1893.9923305213451 9106.9397746175528 3749.7939602732658 12615.700327426195 2342.1421744227409 39251.986373797059 11480.053775623441 10321.910661488771 24073.457873135805 8331.8804854899645 12629.03629103303 8667.7416663616896 11457.390398830175 23132.945064783096 9105.6708941757679 3976.8971314430237 36789.542911320925 5619.5835900902748 21391.008230015635 5537.3689924776554 10158.457257390022 27924.131762310863 13331.350882694125 8282.2973666191101
leaf_count=65852 12474 71527 3463 17515 10277 377859 7682 42295 15175 52322 10959 189726 50035 48221 96382 33548 54976 41013 47512 104391 42963 17047 187587 24206 108385 25003 45940 111864 56828 35084
internal_value=0 -0.00819701 0.00860983 -0.00391716 0.00175893 0.0110116 -0.0165025 -0.000183984 -0.0102153 -0.00909192 0.00451483 0.00811732 -0.00408201 0.00150931 -0.0177878 -0.0123092 -0.00354732 -6.18355e-05 -0.00915702 0.00340068 0.00193421 -0.0159591 0.00908857 -0.00482742 0.0086083 9.12127e-05 -0.00349416 -0.0163833 -0.00609941 -0.00482253
internal_weight=0 222794 213072 147030 55308.4 157763 75764.5 85411.9 10347.8 61617.9 44960.6 87218.1 24095.8 11176.6 68251 37522.2 44066.4 21227.4 19789.3 41345.6 32238.6 7726.69 76041.5 7513.58 23733.2 18166.4 12559.7 51997.6 25900 21613.6
internal_count=2008111 939985 1068126 633999 261270 806856 305986 379055 44696 254944 216574 428997 102357 51684 274098 152587 189406 97230 81060 189649 147354 32222 377313 31888 119344 79979 56217 208246 109427 91912
shrinkage=0.0148148


Tree=11
num_leaves=31
num_cat=0
split_feature=54 42 42 54 52 55 55 55 15 36 54 37 54 49 28 52 15 37 42 37 2 28 55 42 28 15 52 15 15 37
split_gain=126845 27732.6 21629.3 14381.2 10382 6725.45 5273.85 5022.35 4768.05 4110.55 3077.42 2957.78 2494.04 2444.52 2115.91 1638.68 1675.45 1620.89 1602.09 1579.49 1487.25 1355.26 1314.34 1982.5 1197.69 1296.82 988.66 964.17 952.406 889.451
threshold=0.57604607795222462 2.8029010331479989 1.8688348091416842 0.8126832950696482 -0.22622322137000786 0.63068181818181823 0.78888888888888908 0.78888888888888908 0.34775000000000006 1.0000000180025095e-35 0.27325002126040082 0.39288247213779132 0.91486355715984891 -0.58868017184099064 32.813750000000006 0.34623709623709625 0.58111111111111124 0.40009881422924903 2.740319461670996 0.37637429020176394 1148.5000000000002 34.289184453647664 0.78888888888888908 1.0000000180025095e-35 30.683916745506153 0.63633333333333353 -0.54200705836219842 0.62775000000000014 0.40900000000000003 0.79133324797814919
decision_type=2 2 2 2 2 2 2 2 2 2 2 2 2 2 2 2 2 2 2 2 2 2 2 2 2 2 2 2 2 2
left_child=1 6 4 7 9 10 13 11 -7 -2 -3 -4 19 -1 -13 16 29 -12 -16 -5 -11 -19 23 -6 -9 -26 -21 -20 -15 -10
right_child=2 5 3 12 22 8 -8 24 15 20 17 14 -14 28 18 -17 -18 21 27 26 -22 -23 -24 -25 25 -27 -28 -29 -30 -31
leaf_value=-0.018563268000380221 0.017711282056406426 -0.0095049636969443962 -0.0003838043616537656 0.0068085801848785932 0.018352295644944221 -0.0021754225503427911 0.0017608021090525796 0.020185860827326825 0.0012676371221919999 -0.01840957189054386 -0.0049191293398774955 0.014402746578423485 0.022721318337942085 -0.013506281425857931 -0.0043969500305334874 0.014086863090912567 0.012758999066680293 0.0077534273676853529 0.0054403428267931851 0.014385333436959699 -0.0063204450859020381 -0.00056511454600606265 0.01796676848667322 -0.0057766681954525426 0.012124957310901588 0.017459507705186866 0.019764711184407764 0.012156244712815284 -0.008400198208704291 0.0091402064134824997
leaf_weight=12663.17296679318 1383.2561677396297 9757.5005239546299 7122.4606349170208 3003.6547746658325 1779.9067808538675 11096.714938908815 8795.5188818275928 16729.74153457582 10466.774285241961 6006.8082008957863 8487.0905125588179 26371.331988081336 80683.863186657429 15918.096899569035 2711.5100560337305 17087.352639243007 10434.883639931679 11076.636507719755 10839.741930499673 10828.437592938542 5339.5655611306429 10691.509929120541 6234.185299500823 2018.5823703408241 23100.696886241436 28003.671739652753 76798.007613509893 13131.487626761198 27989.014073655009 6438.7650762349367
leaf_count=58852 5652 41941 29164 12136 7278 46008 35896 67978 42321 26879 35587 106595 339797 70597 11338 68651 41899 45080 43554 44104 23218 43707 25529 8437 93049 113854 317850 52883 122421 25856
internal_value=0 -0.00188013 0.0162411 0.0174321 0.000579067 0.00384323 -0.0102453 0.0132059 0.00759711 -0.00941362 -0.00136591 0.00970088 0.02059 -0.012112 0.0110547 0.010038 0.00750751 0.00125898 0.0077458 0.0186926 -0.0127205 0.00366774 0.013258 0.00552975 0.0163152 0.0150481 0.0191 0.00911933 -0.0102514 0.00426604
internal_weight=0 160903 322087 299325 22762.3 95537.2 65365.8 128011 55524.5 12729.6 40012.7 60176.5 171314 56570.3 53054.1 44427.8 27340.4 30255.2 26682.7 90630.1 11346.4 21768.1 10032.7 3798.49 67834.1 51104.4 87626.4 23971.2 43907.1 16905.5
internal_count=2008111 678816 1329295 1232302 96993 391050 287766 518415 224735 55749 166315 243534 713887 251870 214370 178727 110076 124374 107775 374090 50097 88787 41244 15715 274881 206903 361954 96437 193018 68177
shrinkage=0.0166667


Tree=12
num_leaves=31
num_cat=0
split_feature=54 42 54 42 55 55 52 42 55 55 54 15 37 15 49 42 37 15 37 15 45 28 28 37 15 28 49 37 37 52
split_gain=152550 29476.4 26099.6 18558.3 8086.49 5679.1 5626.16 6545.89 5265.88 5224.17 4422.53 3751.33 2883.81 2569.94 2197.7 1965.92 1810.04 1569.06 1523.89 1515.35 1375.11 1343.94 1293.95 1225.28 1167.4 1113.2 1105.19 1104.08 1056.12 1035.77
threshold=0.59211999476910149 2.8029010331479989 0.82478722627513612 2.1383330595080285 0.75961538461538469 0.83974358974358987 -0.49929971988795513 2.0126758453675748 0.78888888888888908 0.78888888888888908 0.32596170965737487 0.42412121212121218 0.64710188614245123 0.84619047619047627 -0.58868017184099064 1.0000000180025095e-35 0.36173341677096377 0.52041666666666686 0.72567232533314974 0.67690476190476201 1.5000000000000002 39.306263858093139 28.594117647058827 0.31177588906284953 0.66064516129032269 33.585416666666674 -0.58868017184099064 0.40912342307192096 0.48531806859551641 0.34623709623709625
decision_type=2 2 2 2 2 2 2 2 2 2 2 2 2 2 2 2 2 2 2 2 2 2 2 2 2 2 2 2 2 2
left_child=1 5 3 8 10 14 7 20 15 12 -3 22 23 18 -1 -2 -12 -18 -8 -14 -4 -11 -6 -5 -23 -25 -17 -7 -9 -13
right_child=2 4 6 9 11 27 13 28 -10 21 16 29 19 -15 -16 26 17 -19 -20 -21 -22 24 -24 25 -26 -27 -28 -29 -30 -31
leaf_value=-0.015253639697799568 0.0033700930685779274 -0.0083140266564081799 0.010906192597162087 -0.005025596121574858 0.0055031228545556251 -0.0090168987290458365 0.0073879720757222354 0.0018354650251949875 0.0047989716319840892 0.010150762490968974 -0.0068546876055783322 0.0031467769002129393 0.0034921871933321661 0.013506861737775719 -0.010392814206251683 -0.015084231764587822 -0.003138969969079359 0.001821570774265291 0.011374426637662357 0.008139218000333695 -0.01166076571491996 0.0050911348994682956 -0.0033336629370653193 0.0040870295446571222 0.0089728249495564221 -0.0014514611832245543 -0.0081914601306331963 0.00061006472854285073 0.0094002563274636318 0.0074973695558198678
leaf_weight=14937.534416764975 1260.3321387469769 18897.573762670159 379.67757144570351 4052.7522973418236 2418.2316039055586 1926.8391584306955 15428.45302593708 2620.727107077837 3986.0366238951683 26422.613185301423 7017.1266425251961 18017.186265066266 18985.887103036046 69293.510857254267 49656.594070732594 5147.6138988137245 15469.014234706759 16029.837072253227 50876.87935000658 15933.504384383559 2732.205545425415 20573.601396381855 13279.576170250773 10509.347378984094 17876.38801689446 7809.6466823220253 6496.0012004375458 6213.261691942811 17444.415825158358 10808.884384691715
leaf_count=61893 5197 76017 1645 16392 9820 7726 66760 10957 16743 114066 28114 74448 79106 318114 201100 21025 62291 65056 226372 68004 11094 86923 53491 43479 77350 32060 26274 25236 76499 44859
internal_value=0 -0.00501116 0.0080677 0.00455298 -0.00115561 -0.0104147 0.0111458 0.00608678 -0.00636373 0.00606229 -0.00391149 0.00239809 0.00361727 0.0120106 -0.0115169 -0.00981189 -0.00175142 -0.00061454 0.0104468 0.0056126 -0.00890739 0.00822157 -0.00197236 0.000502827 0.00689583 0.00172589 -0.0112387 -0.00166873 0.00841221 0.00477811
internal_weight=0 174672 297830 139054 101937 72734.2 158776 23177 16890 122164 57413.6 44523.9 57291.1 135599 64594.1 12903.9 38516 31498.9 66305.3 34919.4 3111.88 64872.6 15697.8 22371.7 38450 18319 11643.6 8140.1 20065.1 28826.1
internal_count=2008111 710051 1298060 586619 414096 295955 711441 100195 69239 517380 231478 182618 239041 611246 262993 52496 155461 127347 293132 147110 12739 278339 63311 91931 164273 75539 47299 32962 87456 119307
shrinkage=0.0111111


Tree=13
num_leaves=31
num_cat=0
split_feature=54 42 37 15 42 54 36 55 52 55 42 15 55 42 37 15 49 15 55 37 54 37 55 15 15 55 15 37 52 15
split_gain=156499 30409.3 26131.2 13985.3 9535.56 8096.98 6363.02 5963.06 5677.67 4726.62 4393.17 3739.01 2690.47 2663.42 2329.17 2286.03 2197.06 1911.82 1661.96 1631.52 1596.52 1322.58 1292.73 1287.51 1261.44 1353.81 1187.04 1143.32 1135.34 1139.99
threshold=0.59628653639214446 2.8029010331479989 0.59224406749673808 0.75050200803212863 2.1383330595080285 0.32596170965737487 1.0000000180025095e-35 0.83974358974358987 0.14615623750943738 0.6515151515151516 2.3502401828962087 0.77125645438898471 0.70294117647058829 1.4978661367769959 0.75310570987654335 0.86366666666666669 -0.58868017184099064 0.42412121212121218 0.6515151515151516 0.71935044387799951 0.7624241572714523 0.80014367816091969 0.70294117647058829 0.35225000000000001 0.29624120603015081 0.51190476190476197 0.57929765886287632 0.42504355400696869 0.34623709623709625 0.66064516129032269
decision_type=2 2 2 2 2 2 2 2 2 2 2 2 2 2 2 2 2 2 2 2 2 2 2 2 2 2 2 2 2 2
left_child=1 7 4 8 6 14 -2 16 10 19 -4 18 -8 22 24 21 -1 -11 -6 -7 -10 -15 -5 -16 -3 -26 -12 -9 29 -19
right_child=2 5 3 13 11 9 12 27 20 17 26 -13 -14 15 23 -17 -18 28 -20 -21 -22 -23 -24 -25 25 -27 -28 -29 -30 -31
leaf_value=-0.023070138680047224 0.013025005723842535 -0.019646856232240852 -0.012342594618721121 -0.022955195753306484 -0.0029040719451474285 -0.0062653406578771255 -0.017968803378374081 -0.013256710893131057 0.010270950223147099 -0.0012151354081423702 0.0016394066362710586 0.011237073449736325 0.0034798604654195158 0.013835539075319181 -0.0082303802472525368 0.02062027573507768 -0.015822369890594712 0.0021847897721113062 0.0068118875384853726 0.0026703717378627153 0.015302069465171346 0.018477010078427152 0.01438562327933043 0.0045348762452493765 -0.01376351295488671 -0.0042694620323041844 0.0086770092086739421 0.0010988014712999354 0.011059365513963023 0.011009829964895303
leaf_weight=15133.643203049898 2852.5592642873526 4608.8206868767738 3736.7805273681879 642.9048857241869 11956.08470492065 21697.318390280008 10361.080337882042 2050.6294959187508 33974.706063017249 11171.581235855818 9222.4760069996119 19961.347043916583 1926.5939752310514 32821.650821462274 4315.0037114322186 64602.539055168629 50011.48342962563 15511.14585416019 8275.2894190251827 7686.6012338250875 36175.881254807115 35496.464902609587 429.64415320754051 4466.6944800019264 10064.546402603388 7126.0646576881409 23937.780539467931 6202.1006942689419 11244.078529387712 5510.4360596090555
leaf_count=62467 12166 18553 15241 2609 48722 87163 42009 8224 143632 45232 38381 85890 8059 143774 17288 295286 202131 63851 34765 31210 157987 157674 1887 18157 40424 28683 101726 25209 46706 23005
internal_value=0 -0.00761108 0.0122021 0.0145732 0.001873 -0.00178753 -0.00939994 -0.0158152 0.0100817 0.00123481 0.00478917 0.00611942 -0.0146059 0.0181615 -0.00898446 0.0183726 -0.0175061 0.00472716 0.00107007 -0.00392783 0.0128654 0.0162471 -0.00799712 -0.0017375 -0.0119038 -0.00982792 0.00671972 -0.00246824 0.00678461 0.00449812
internal_weight=0 176800 296374 241041 55333 103402 15140.2 73397.9 107048 72821.2 36897 40192.7 12287.7 133993 30581.1 132921 65145.1 43437.2 20231.4 29383.9 70150.6 68318.1 1072.55 8781.7 21799.4 17190.6 33160.3 8252.73 32265.7 21021.6
internal_count=2008111 718303 1289808 1058197 231611 420272 62234 298031 456967 297167 155348 169377 50068 601230 123105 596734 264598 178794 83487 118373 301619 301448 4496 35445 87660 69107 140107 33433 133562 86856
shrinkage=0.0166667


Tree=14
num_leaves=31
num_cat=0
split_feature=54 54 42 42 37 52 42 55 55 55 15 15 15 55 37 49 28 51 42 37 45 28 28 49 37 15 15 37 52 15
split_gain=132643 25410.7 24114.4 16391.8 6557.34 6022.45 6270.69 4839.98 4409.58 4409 4299.66 3472.9 2809.01 2791.48 2512.42 2049.84 2018.73 1948.42 1726.35 1633.82 1305 1289.63 1155.67 1103 1053.11 1021.99 963.258 950.201 948.09 902.51
threshold=0.57604607795222462 0.8126832950696482 2.8029010331479989 2.1383330595080285 0.75310570987654335 -0.49929971988795513 2.0126758453675748 0.78888888888888908 0.83974358974358987 0.78888888888888908 0.46057644110275692 0.36090452261306533 0.84619047619047627 0.40833333333333338 0.38472751738057864 -0.58868017184099064 33.813226744186053 0.43791373709962583 1.0000000180025095e-35 0.75016170763260037 1.5000000000000002 44.659420289855071 33.813226744186053 -0.58868017184099064 0.48531806859551641 0.58433870967741941 0.63633333333333353 0.29634759413152773 0.28374019731849237 0.59708333333333352
decision_type=2 2 2 2 2 2 2 2 2 2 2 2 2 2 2 2 2 2 2 2 2 2 2 2 2 2 2 2 2 2
left_child=2 3 8 9 10 6 20 14 15 18 17 -6 19 27 -5 -1 -16 -4 -2 -7 -3 -9 -15 -20 -8 -18 -23 -12 29 -13
right_child=1 5 4 7 11 12 24 21 -10 -11 13 28 -14 22 16 -17 25 -19 23 -21 -22 26 -24 -25 -26 -27 -28 -29 -30 -31
leaf_value=-0.019311622808807018 0.0045244573708582234 0.013868655641950518 -0.011614682979990023 -0.0045669301215143969 -0.0042020510816376941 0.0096949456117806435 0.0018246883052419208 0.012295052293138225 -0.0024299871796646024 0.0056546576227774212 -0.010999541707753699 0.0014433396036955656 0.017343586671304544 0.0078640106051832189 0.0082066492320359476 -0.01288156839563811 -0.0019942905712692013 -0.0029456128882981857 -0.019065416157515173 0.014601864040531893 -0.014800298629726856 0.0054834389199484449 0.00020894034987698672 -0.010028140545710773 0.011549896900277202 0.0044100090834540947 0.010678129191069112 -0.0032490406084873255 0.0100505669286628 0.0094690936927127444
leaf_weight=14059.434103742242 1235.8682280182838 394.33506686985493 18324.437469378114 6386.8013153523207 8810.9109670072794 21188.388205587864 2823.0085027366877 31234.517163261771 7670.6481907069683 3951.2685426473618 5207.060722604394 9210.4178578704596 68563.262122094631 6110.9251048117876 25625.631708517671 48137.421829774976 8231.3737800419331 8253.0117638707161 5140.7437438368797 50123.622587606311 2996.8170276582241 15909.158153787255 14838.849691599607 7000.5373172163963 18193.620966434479 16295.1526440382 15436.304897367954 10417.495667487383 10359.278850078583 4616.5930313467979
leaf_count=59651 5092 1726 73968 25808 35459 93024 11845 136006 31056 16602 20964 37573 323519 25164 108244 197059 33801 33359 21388 227457 12293 67318 60543 28519 81134 68289 67230 41885 42847 19288
internal_value=0 0.0100929 -0.00640444 0.00536762 -0.00159135 0.0140176 0.00722723 0.00732609 -0.013028 -0.00809526 -0.00438797 0.00376097 0.0152025 -0.00109272 0.00418435 -0.0143351 0.00529881 -0.0089227 -0.0121566 0.0131439 -0.0114666 0.0101646 0.00244188 -0.0138546 0.0102436 0.00226066 0.0080416 -0.00583198 0.00666185 0.004123
internal_weight=0 300730 166016 136447 96149 164283 24407.8 119119 69867.5 17328.4 63151.8 32997.2 139875 36574.3 56539 62196.9 50152.2 26577.4 13377.1 71312 3391.15 62580 20949.8 12141.3 21016.6 24526.5 31345.5 15624.6 24186.3 13827
internal_count=2008111 1329295 678816 578297 391050 750998 106998 506696 287766 71601 255883 135167 644000 148556 236142 256710 210334 107327 54999 320481 14019 270554 85707 49907 92979 102090 134548 62849 99708 56861
shrinkage=0.0148148


Tree=15
num_leaves=31
num_cat=0
split_feature=54 55 54 42 42 15 52 42 55 55 37 54 15 37 52 28 49 42 42 37 37 28 28 15 26 15 15 37 15 15
split_gain=141566 27923.5 23789.1 16407.3 10190 5772.89 5590.42 6012.02 5438.49 4559.37 3101.68 3025.55 2586.41 2449.52 2277.71 1936.37 1921.7 1876.48 1734.77 1512.76 1497.73 1332.64 1250.17 1371.95 1200.85 1104.17 1097.92 1019.08 999.219 985.491
threshold=0.60029666981490903 0.6515151515151516 0.82478722627513612 2.2499048351651334 3.0677824455408698 0.42412121212121218 -0.49929971988795513 2.1383330595080285 0.78888888888888908 0.78888888888888908 0.75512303686906868 0.32017181042846915 0.84335341365461869 0.39288247213779132 0.43936224166349697 32.813750000000006 -0.58868017184099064 2.2499048351651334 1.0000000180025095e-35 0.40009881422924903 0.75016170763260037 23.505813953488374 30.683916745506153 0.66064516129032269 27.119102341005355 0.5445000000000001 0.66764830508474582 0.80264616641381736 0.40900000000000003 0.86366666666666669
decision_type=2 2 2 2 2 2 2 2 2 2 2 2 2 2 2 2 2 2 2 2 2 2 2 2 2 2 2 2 2 2
left_child=1 4 3 8 16 14 7 24 18 13 17 -6 20 -5 27 -15 -1 -7 -2 -13 -8 -19 -11 -24 -4 -21 -17 -3 -18 -9
right_child=2 5 6 9 11 10 12 29 -10 22 -12 19 -14 15 -16 26 28 21 -20 25 -22 -23 23 -25 -26 -27 -28 -29 -30 -31
leaf_value=-0.014770180501782079 0.0033074181459722429 -0.0084404903822435755 0.0021463571603029907 -0.0031780749843477799 -0.0086882852019578571 -0.0062277718895215094 0.0073695489734704571 0.0057660351446907213 0.0048847868627335785 0.010745768014927281 0.0061443408330536979 -0.0064915799014924995 0.013136174996443265 0.0065672269833025668 0.00042026049962413296 -8.1857201821048127e-05 -0.012408389288405016 0.0079233018844517868 -0.010610819105526222 -0.0030416527744713024 0.011115214852152139 0.0005333805876830838 0.0051581349575556901 0.0089556653078153685 -0.012096854580960634 0.0020593974520918927 0.0046727403827099018 -0.0026768310435095069 -0.009020749214394632 0.010789123418951005
leaf_weight=15259.313202783465 1220.302405744791 10285.843625277281 1047.4579469412565 5953.0749150216579 12991.698378220201 4461.4605413079262 18507.244257628918 10377.368760436773 4489.6556647866964 14997.649321958423 19458.245448440313 7549.8897877633572 68837.649497404695 24573.14846624434 9994.3283504247665 12863.427581652999 16715.991230472922 3530.8101749718189 11759.893707916141 11391.440307319164 45779.393399268389 20528.149774357677 23437.31985168159 23542.581609129906 2417.1769322305918 9699.4851692914963 11230.958307057619 5994.462943777442 30114.905482798815 9007.4011478573084
leaf_count=63787 5047 41438 4404 24141 52363 18032 81372 44848 19052 65608 81100 30257 322566 104414 40503 53330 68134 14650 48001 45842 207308 84319 99932 103291 9888 39389 47573 24189 122278 41055
internal_value=0 -0.00477023 0.00781781 0.00438556 -0.008494 0.000431423 0.010768 0.00569057 -0.00565632 0.00589013 0.00272409 -0.00424092 0.0116395 0.00354966 -0.00375509 0.0043726 -0.0113458 0.000390598 -0.00930233 -0.00222355 0.0100369 0.0016179 0.00795278 0.00706115 -0.00779073 -0.000695736 0.00213437 -0.00631829 -0.0102299 0.00810008
internal_weight=0 177976 290042 134068 103723 74253.3 155974 22849.4 17469.9 116598 47978.7 41632.5 133124 54620.6 26274.6 48667.5 62090.2 28520.4 12980.2 28640.8 64286.6 24059 61977.6 46979.9 3464.63 21090.9 24094.4 16280.3 46830.9 19384.8
internal_count=2008111 726281 1281830 570389 422050 304231 711441 100195 72100 498289 198101 167851 611246 229458 106130 205317 254199 117001 53048 115488 288680 98969 268831 203223 14292 85231 100903 65627 190412 85903
shrinkage=0.0111111


Tree=16
num_leaves=31
num_cat=0
split_feature=54 42 37 54 54 42 55 36 55 52 42 55 55 15 37 49 15 15 15 15 15 52 37 52 42 28 55 15 37 15
split_gain=159172 37203.2 21717.7 12106.4 11986.2 6830.04 6198.14 5634.95 5621.47 4942.38 5425.8 2812.43 2627.63 2625.39 2516.2 2204.51 1893.18 1868.95 1860.21 1647.53 1531.11 1384.35 1302.56 1181.11 1307.2 1158.08 1124.51 1118.28 1290.63 960.331
threshold=0.64191568535942545 2.524928003624769 0.56526635330983166 0.33721512917309338 0.85775872206650339 2.2499048351651334 0.75961538461538469 1.0000000180025095e-35 0.83974358974358987 -0.29324867990947939 2.3502401828962087 0.78888888888888908 0.78888888888888908 0.77125645438898471 0.6226704479685149 -0.58868017184099064 0.86773493975903626 0.49708333333333338 0.72696969696969715 0.52041666666666686 0.28450000000000003 0.28682252123581148 0.41675665946724266 -0.51877251471147601 2.2499048351651334 26.364782608695656 0.58578431372549034 0.32844444444444448 0.67429882044560951 0.67690476190476201
decision_type=2 2 2 2 2 2 2 2 2 2 2 2 2 2 2 2 2 2 2 2 2 2 2 2 2 2 2 2 2 2
left_child=1 8 5 11 9 7 14 -2 15 10 -4 27 -9 26 -5 -1 23 25 21 -16 -13 -11 -10 24 -6 -8 -7 -3 -29 -12
right_child=2 3 4 6 16 13 17 12 22 18 29 20 -14 -15 19 -17 -18 -19 -20 -21 -22 -23 -24 -25 -26 -27 -28 28 -30 -31
leaf_value=-0.017716143568208682 0.0096453033155978803 -0.014579791182505722 -0.011633902479744518 -0.0046627568269555974 -0.010010353930725501 -0.0025079477458696355 0.0085438538578785396 -0.01351464577285484 -0.010736449311991178 0.0057226750459548571 0.0024376956712731505 -0.010034978244680724 0.0044864465680752473 0.0080209269314923358 -0.0023555044009597854 -0.012239074904716471 0.015464267401192203 0.006845892718677477 0.011707990852099249 0.0040523239212116964 -0.00027777028175080893 0.0097855277915440114 0.0012997906216742619 0.012896583718647809 0.0090841729631078033 7.7395022622868599e-05 0.0048828642846784256 -0.010281436932476382 -0.001661083049736718 0.0078735937840913386
leaf_weight=14897.065315559506 2672.2200410217047 6284.4348522126675 3365.5781122595072 24057.188953652978 618.42611666023731 7949.6713670641184 3058.7495076209307 8423.1605093330145 1908.5731069594622 23327.330203488469 9061.1605382412672 3390.175721898675 1491.36040148139 15714.28861874342 11997.428040534258 50095.042132526636 56731.05229511857 25844.575984209776 35223.6424344033 13131.771815299988 9711.0669860690832 29900.411912456155 5323.2222121953964 54628.289763659239 5950.2390773445368 14449.985788881779 5402.6319154798985 11973.393693387508 3509.1008499413729 11552.105336874723
leaf_count=61292 11535 25235 13597 96947 2518 32525 12719 34076 7644 99959 37720 13570 6334 67933 48510 201867 262028 108614 155496 53984 39458 128575 21653 245035 25802 59116 22842 48034 14129 49364
internal_value=0 -0.00516411 0.00953332 -0.0011013 0.0110352 0.00122716 0.00126392 -0.0064648 -0.0123312 0.00811503 0.00308147 -0.00737854 -0.0108069 0.00455802 -0.00177323 -0.0134945 0.0138193 0.0047097 0.0094796 0.000993036 -0.00280262 0.00800496 -0.00187674 0.0122944 0.00728646 0.00155647 0.000482535 -0.0101327 -0.00832764 0.00548409
internal_weight=0 199632 272012 127408 230358 41653.3 92539.7 12586.7 72223.9 112430 23978.8 34868.2 9914.52 29066.6 49186.4 64992.1 117928 43353.3 88451.4 25129.2 13101.2 53227.7 7231.8 61197 6568.67 17508.7 13352.3 21766.9 15482.5 20613.3
internal_count=2008111 812772 1195339 520316 1020094 175245 379890 51945 292456 484711 100681 140426 40410 123300 199441 263159 535383 180449 384030 102494 53028 228534 29297 273355 28320 71835 55367 87398 62163 87084
shrinkage=0.0125


Tree=17
num_leaves=31
num_cat=0
split_feature=54 42 37 15 54 42 55 36 52 52 42 15 55 37 52 42 49 37 37 15 15 49 15 37 15 55 37 15 37 15
split_gain=129089 28673.2 19719.6 10973.7 8650.06 7037.98 5087.53 4958.94 4704.1 4334.46 3738.28 2964.55 2227.68 2120.3 1955.54 2286.23 1863.09 1825.16 1389.36 1369.26 1339.51 1338.32 1334.78 1307.74 1297 1284.71 1160.85 1111.59 982.162 944.7
threshold=0.62714253168118284 2.6735537653587347 0.5957726028927236 0.77550000000000019 0.32596170965737487 2.1383330595080285 0.67708333333333337 1.0000000180025095e-35 0.10663282571912007 0.15682120305749417 2.1383330595080285 0.76928571428571446 0.70294117647058829 0.78613056383853086 -0.65895721925133677 1.8688348091416842 -0.58868017184099064 0.80014367816091969 0.80437171524128059 0.31225000000000008 0.49708333333333338 -0.58868017184099064 0.8907142857142859 0.839054903214417 0.62450000000000017 0.4494949494949495 0.75695088641517227 0.5445000000000001 0.28209147174664412 0.39336717428087992
decision_type=2 2 2 2 2 2 2 2 2 2 2 2 2 2 2 2 2 2 2 2 2 2 2 2 2 2 2 2 2 2
left_child=1 6 5 9 13 7 16 -2 18 10 -4 21 -9 19 15 -5 -1 20 27 -3 -10 -7 -16 -11 -12 -21 -8 -6 -13 -19
right_child=2 4 3 14 8 11 26 12 17 23 24 28 -14 -15 22 -17 -18 29 -20 25 -22 -23 -24 -25 -26 -27 -28 -29 -30 -31
leaf_value=-0.057196391832245237 0.032395678831490422 -0.046890660309295534 -0.033114153139772326 -0.050297547898590249 -0.02156858255648644 -0.017141221481562743 -0.019662655493465055 -0.044314525238376826 -0.003829492817658116 0.028384721628062572 0.0074741618598595863 0.0036124649385434115 0.01049985165353501 -0.0014639634610213749 0.044343188506431805 0.033640125395456154 -0.038916251055853286 0.0056757572372878751 0.011706476066156131 -0.035553156828157524 0.014124223734107405 0.010449248150872956 0.05458836249955628 0.040861393808990586 0.025007958671120094 -0.011743027007693115 0.012022889617543293 -0.004008310968219987 0.032089918835182876 0.030177347753635439
leaf_weight=14348.927160128951 2686.7934896498919 6241.8663908392191 2917.2034939974546 687.91984109580517 13362.322283342481 4795.1083364635706 7874.9793979227543 8824.7233779430389 13588.23835426569 38565.019774243236 12542.173251107335 2788.5434922426939 1755.9441473037004 7185.1687308847904 63347.938457280397 9392.7140966057777 47372.303724110126 4025.334590986371 5764.2933566272259 8314.9813320040703 20734.01211515069 12593.283521667123 41624.518092051148 29127.693434610963 24833.818676039577 9696.0805487781763 3216.9570854306221 15243.746598929167 16835.759631589055 13646.349860697985
leaf_count=61177 11748 25305 12014 2797 53755 19533 31823 36249 55249 169018 53074 11810 7460 29087 293437 42450 193980 16352 23784 33625 85982 52775 200920 130313 108408 39047 13154 61909 74511 57365
internal_value=0 -0.0162603 0.0313912 0.0370593 -0.0027083 0.00624784 -0.0381857 -0.0215253 0.00455796 0.0268835 0.0153422 0.0162033 -0.0352177 -0.0226696 0.0466101 0.0279121 -0.043166 0.0129914 -0.00819975 -0.028952 0.00701632 0.00284076 0.0484057 0.0337533 0.0191242 -0.0227352 -0.010473 -0.012211 0.0280434 0.0245963
internal_weight=0 190616 273319 223039 117802 50280.2 72813.2 13267.5 86364.3 107986 40293.2 37012.7 10580.7 31438.1 115053 10080.6 61721.2 51993.9 34370.4 24252.9 34322.3 17388.4 104972 67692.7 37376 18011.1 11091.9 28606.1 19624.3 17671.7
internal_count=2008111 781594 1226517 1012431 481460 214086 300134 55457 354396 472827 173496 158629 43709 127064 539604 45247 255157 214948 139448 97977 141231 72308 494357 299331 161482 72672 44977 115664 86321 73717
shrinkage=0.0444444


Tree=18
num_leaves=31
num_cat=0
split_feature=54 55 54 42 42 15 55 52 42 55 37 15 37 37 52 15 27 42 42 37 15 28 42 28 26 15 37 49 37 2
split_gain=144239 28246.1 24846 17075.6 10027 5869.02 5704.8 5297.54 5788.68 4744.52 2948.94 2658.07 2628.13 2603.68 2588.06 2435.77 1851.74 1802.72 1729.31 1442.11 1389.23 1290.24 1220.2 1162.61 1152.85 1103.68 1096.88 1063.23 1041.75 1006.88
threshold=0.60029666981490903 0.6515151515151516 0.82949618718760487 2.2499048351651334 3.0677824455408698 0.44808026755852842 0.82575757575757591 -0.50416695603861361 2.1383330595080285 0.78888888888888908 0.40009881422924903 0.41225000000000006 0.75512303686906868 0.64710188614245123 0.43142231511894097 0.84619047619047627 69.440815187046354 2.2499048351651334 1.0000000180025095e-35 0.75016170763260037 0.67690476190476201 39.306263858093139 3.4498615536424366 25.10772946859904 27.119102341005355 0.66064516129032269 0.31177588906284953 -0.58868017184099064 0.73734558487113022 1163.5000000000002
decision_type=2 2 2 2 2 2 2 2 2 2 2 2 2 2 2 2 2 2 2 2 2 2 2 2 2 2 2 2 2 2
left_child=1 4 3 6 16 14 18 8 24 13 -6 -12 17 26 22 19 -1 -7 -2 -9 -15 -11 -3 -19 -4 -23 -5 -20 -13 -18
right_child=2 5 7 9 10 12 -8 15 -10 21 11 28 -14 20 -16 -17 29 23 27 -21 -22 25 -24 -25 -26 -27 -28 -29 -30 -31
leaf_value=-0.0076040738869233787 0.002146845193650433 -0.0076592978629445706 0.0015292049829713594 -0.0037999412570530835 -0.0067151186664071161 -0.0047254675224871132 0.0039060390616630796 0.0055227749922681021 0.006086356846189165 0.007302759166311068 -0.0059182206742890275 -0.0015058389018052945 0.0046267417035576889 0.0023896968501308244 0.00038960408864999511 0.0098086402731310737 -0.012534085922551102 0.0056443273003556615 -0.010763448472751694 0.0083219836772034875 0.0057485926045889868 0.0035265913806370583 -0.0031121535217424534 0.00050731741563795501 -0.0091143375615991371 0.0063835572654430519 0.0011320838472904438 -0.0058290767051971705 0.0026692288553743816 -0.009039575704650929
leaf_weight=39090.044552624226 1271.9678381085396 5996.7861208170652 1019.0375372618437 3807.2701229155064 13030.803878799081 3977.6385892480612 4313.6879186332226 17875.996137365699 18593.648019358516 25774.75710105896 8259.8151311278343 14515.658922344446 17380.853005588055 18325.982625648379 12039.027091085911 67072.878803268075 10208.735373735428 3681.477888584137 5539.4931385964155 44842.477873206139 16031.323420152068 19779.445729807019 12944.155356362462 18108.920039251447 2305.7486420124769 17876.949199393392 17641.206815689802 6700.6488696038723 5812.0019617825747 13039.342610433698
leaf_count=158825 5300 24218 4276 15443 52311 16035 18452 78895 82607 113435 33246 58499 72958 77179 48888 316321 42479 15312 22651 204042 69688 84727 52246 74574 9399 78809 73453 27153 23795 52895
internal_value=0 -0.00379448 0.0057414 0.00316973 -0.00659702 0.000135737 -0.00443753 0.00806479 0.00427542 0.00430701 -0.00342954 -0.0019319 0.00212258 0.00253477 -0.00263154 0.00870472 -0.0087117 0.000433492 -0.00710118 0.00752415 0.00395698 0.00586619 -0.0045518 0.00137521 -0.00585212 0.0048829 0.000256611 -0.00806221 -0.000312121 -0.0105741
internal_weight=0 178085 288773 137063 103956 74128.9 17825.8 151710 21918.4 119237 41618.3 28587.5 43148.9 55805.8 30980 129791 62338.1 25768 13512.1 62718.5 34357.3 63431.2 18940.9 21790.4 3324.79 37656.4 21448.5 12240.1 20327.7 23248.1
internal_count=2008111 726281 1281830 586290 422050 304231 73556 695540 96282 512734 167851 115540 178879 235763 125352 599258 254199 105921 55104 282937 146867 276971 76464 89886 13675 163536 88896 49804 82294 95374
shrinkage=0.00833333


Tree=19
num_leaves=31
num_cat=0
split_feature=54 42 54 42 54 55 55 55 55 52 42 55 37 15 49 37 42 15 15 37 15 37 15 28 28 15 37 37 15 15
split_gain=141718 32921.3 19300.8 14866.5 10253.2 5526.55 5035.58 4880.77 4316.11 4171.91 4561.41 3121.13 2525.79 2047.12 1944.44 1861.57 1813.21 1632.41 1619.68 1411.59 1258.76 1359.84 1256.34 1168.49 1138.79 1111.4 1068.06 1032.83 951.835 923.368
threshold=0.64191568535942545 2.602003343538398 0.84946857627987604 2.1383330595080285 0.37013974586587833 0.78888888888888908 0.78888888888888908 0.70294117647058829 0.78888888888888908 -0.5759746835443037 2.0126758453675748 0.78888888888888908 0.65609110853013297 0.86366666666666669 -0.58868017184099064 0.64105024853585324 1.0000000180025095e-35 0.49708333333333338 0.28450000000000003 0.67683349683704896 0.34775000000000006 0.40009881422924903 0.69532608695652176 39.306263858093139 26.155444587628867 0.52041666666666686 0.72358986012220383 0.34445287472601588 0.66064516129032269 0.40900000000000003
decision_type=2 2 2 2 2 2 2 2 2 2 2 2 2 2 2 2 2 2 2 2 2 2 2 2 2 2 2 2 2 2
left_child=1 5 3 6 11 14 16 15 12 10 -4 20 27 19 -1 -6 -2 24 -13 -11 -3 -22 -14 -10 -9 -17 -7 -5 -25 -16
right_child=2 4 9 8 7 26 -8 17 23 13 -12 18 22 -15 29 25 -18 -19 -20 -21 21 -23 -24 28 -26 -27 -28 -29 -30 -31
leaf_value=-0.019829019813672157 0.0043641363298342513 -0.015399315219166116 -0.012329211409223377 -0.0051895311286133941 -0.0050151803603519897 -0.0065527729821048541 0.0072672615817773734 0.0097722470641301764 0.013436208981399054 0.008649855221858526 0.010734768025825889 -0.010732417057864355 0.0051531327849455681 0.017674846055628905 -0.016505297071621051 -0.0026295938992525274 -0.014877108717564742 0.0073930413330142372 0.0005261036356329137 0.014760475483322105 -0.01335779897996984 -0.0049191112596896017 0.010892132602397998 0.0068335480807592483 -5.1690101088659045e-05 0.0048614074037326557 0.0041071559806698339 0.0030055665049569949 0.011623160630166163 -0.012256237820217028
leaf_weight=14972.436943531036 1213.251812428236 7746.1984753608704 2175.4366969168186 4256.9133651256561 21068.103048786521 5789.9417293965816 3757.180141210556 3134.3017750531435 26906.645188868046 9867.5389646440744 13953.250162988901 3636.1678856015205 17469.615280687809 57153.771224677563 17219.646520167589 7859.2628622353077 9427.5242118835449 27420.48065662384 12261.968691378832 52136.017481446266 6898.760424643755 10678.554580613971 16076.102307528257 17207.502832427621 14907.037360414863 9726.8747225105762 3204.7286328971386 16298.053326666355 19343.455830544233 32242.908348351717
leaf_count=62638 5112 31250 8922 17328 84864 23321 16168 13070 119680 43329 62261 14567 74298 271731 70051 31809 38359 115901 49853 238800 27742 42934 70645 74257 61006 40084 13127 68522 85927 130555
internal_value=0 -0.00575578 0.0107631 0.00673184 -0.00114094 -0.0136329 -0.00747711 0.00182532 0.00847208 0.0146952 0.0076239 -0.00719382 0.00539771 0.0156523 -0.0151514 -0.00204481 -0.0126832 0.00511593 -0.00204891 0.013788 -0.0104238 -0.00823114 0.00790343 0.0110931 0.00165501 0.00151367 -0.00275473 0.00130837 0.0093683 -0.0137355
internal_weight=0 198767 267242 131956 125338 73429.7 14398 84116.1 117558 135286 16128.7 41221.7 54100.7 119157 64435 38654.2 10640.8 45461.8 15898.1 62003.6 25323.5 17577.3 33545.7 63457.6 18041.3 17586.1 8994.67 20555 36551 49462.6
internal_count=2008111 812772 1195339 570296 513080 299692 59639 346734 510657 625043 71183 166346 230793 553860 263244 156757 43471 189977 64420 282129 101926 70676 144943 279864 74076 71893 36448 85850 160184 200606
shrinkage=0.0148148


Tree=20
num_leaves=31
num_cat=0
split_feature=54 55 54 42 42 15 52 42 55 55 37 37 15 15 37 52 42 27 42 37 15 28 15 45 28 49 42 15 37 37
split_gain=134179 25962.4 23983.9 15803.5 9237.54 5407.07 5335.95 5671.47 5140.64 4457.75 2748.7 2728.69 2537.81 2496 2469.92 2103.29 1817.56 1808.56 1588.32 1462.04 1338.71 1248.88 1408.57 1236.68 1216.96 1136.88 1085.16 1041.02 1015.97 983.677
threshold=0.59628653639214446 0.6515151515151516 0.82478722627513612 2.2499048351651334 3.0677824455408698 0.42412121212121218 -0.49929971988795513 2.0126758453675748 0.83974358974358987 0.78888888888888908 0.75512303686906868 0.38472751738057864 0.41225000000000006 0.84619047619047627 0.64710188614245123 0.46187607573149742 2.4414009612931857 81.806504432273741 1.0000000180025095e-35 0.72567232533314974 0.67690476190476201 30.683916745506153 0.66064516129032269 1.5000000000000002 36.623626373626387 -0.58868017184099064 3.4498615536424366 0.86366666666666669 0.31177588906284953 0.73734558487113022
decision_type=2 2 2 2 2 2 2 2 2 2 2 2 2 2 2 2 2 2 2 2 2 2 2 2 2 2 2 2 2 2
left_child=1 4 3 8 17 15 7 23 18 14 16 -6 -13 19 28 26 -7 -1 -2 -8 -16 -11 -23 -4 -18 -20 -3 -9 -5 -14
right_child=2 5 6 9 11 10 13 27 -10 21 -12 12 29 -15 20 -17 24 -19 25 -21 -22 22 -24 -25 -26 -27 -28 -29 -30 -31
leaf_value=-0.015204526735970884 0.0043301890933367523 -0.015339904420779012 0.015688512000013401 -0.0073723771968897782 -0.013187930472730508 -0.0086774397784750174 0.010119233838483314 0.0079665984973532143 0.007807384546424271 0.015547456197694964 0.0086136141267557018 -0.011502757025166508 -0.0028777873695941137 0.019257560767959987 0.0046022731886821728 0.00082588449407228583 0.0075474316375201524 -0.021979950966608042 -0.020950340826352783 0.016043690358760361 0.011270393513666167 0.0071493675424833363 0.012915634510918738 -0.016653940563635231 -0.00047034240265777486 -0.01079722317586564 -0.006329353903970136 0.015670758846507857 0.0021025963338811705 0.0052813864954110376
leaf_weight=47336.908440217376 1262.1337761282921 5410.492893025279 373.54239588975906 3829.9613725990057 12167.315447956324 5040.1799788028002 15117.246491774917 10488.421865463257 4092.9244635850191 14956.744273170829 18882.768912315369 8390.268646016717 14853.824706718326 66443.821852877736 18313.67721131444 8883.2550778985023 8150.8336469382048 14234.215887695551 5498.7504077553749 49320.085011303425 15392.573460623622 23646.102906242013 23425.212614163756 2717.7814585864544 14819.457994043827 6917.1729486733675 11831.542949721217 9098.1207657307386 17540.92844620347 5671.7100640237331
leaf_count=193680 5256 21848 1645 15504 48927 20341 66760 45588 17541 66328 79262 33830 59789 318114 77159 36010 33809 59130 22641 226372 67039 101707 104066 11094 60788 28128 47671 41868 72998 23218
internal_value=0 -0.00728316 0.0111936 0.00606548 -0.0126869 0.000313821 0.0156977 0.00823402 -0.00857953 0.0082879 0.00369905 -0.00656631 -0.00378004 0.016991 0.00483704 -0.00576246 0.000385991 -0.0167709 -0.013483 0.0146538 0.00764739 0.011352 0.010019 -0.0127458 0.0023747 -0.0152938 -0.00915683 0.0115452 0.000404549 -0.000623207
internal_weight=0 175673 288435 134876 102654 73018.5 153559 22677.9 17771 117105 46893.2 41083.1 28915.8 130881 55077.1 26125.3 28010.5 61571.1 13678.1 64437.3 33706.3 62028.1 47071.3 3091.32 22970.3 12415.9 17242 19586.5 21370.9 20525.5
internal_count=2008111 718303 1289808 578367 418574 299729 711441 100195 73566 504801 194200 165764 116837 611246 232700 105529 114938 252810 56025 293132 144198 272101 205773 12739 94597 50769 69519 87456 88502 83007
shrinkage=0.0166667


Tree=21
num_leaves=31
num_cat=0
split_feature=54 42 42 54 54 52 55 52 55 36 55 42 15 49 15 37 37 15 28 15 52 27 15 37 37 55 42 28 37 2
split_gain=140469 32917.2 19234.4 13733 10230.7 9137.39 5560.51 5309.53 4737.49 3529.96 3211.39 2281.03 1994.81 1990.77 1923.72 1783.88 1708 1638.1 1556.32 1547.07 1333.33 1300.22 1285 1410.66 1206.84 1185.1 1465.07 1110.24 1030.56 989.469
threshold=0.64191568535942545 2.602003343538398 1.8688348091416842 0.85775872206650339 0.37563448905725721 -0.22622322137000786 0.78888888888888908 -0.22622322137000786 0.70294117647058829 1.0000000180025095e-35 0.78888888888888908 2.740319461670996 0.86773493975903626 -0.58868017184099064 0.70827135678391973 0.36173341677096377 0.54387227060456911 0.28450000000000003 38.119429590017837 0.49708333333333338 0.27595186781609193 49.734768457717131 0.32844444444444448 0.36173341677096377 0.44451861741581372 0.86607142857142871 1.0000000180025095e-35 26.155444587628867 0.41675665946724266 1148.5000000000002
decision_type=2 2 2 2 2 2 2 2 2 2 2 2 2 2 2 2 2 2 2 2 2 2 2 2 2 2 2 2 2 2
left_child=1 6 5 7 10 9 13 11 15 -2 22 21 16 -1 20 -6 -5 -12 -17 27 -9 -4 -3 -24 -13 26 -7 -10 -8 -11
right_child=2 4 3 12 8 25 28 14 19 29 17 24 -14 -15 -16 18 -18 -19 -20 -21 -22 -23 23 -25 -26 -27 -28 -29 -30 -31
leaf_value=-0.019778197272500259 0.010952106625386406 -0.015800802978180484 0.00088557102447145344 0.0041432933735125526 -0.0086421736475840068 0.011563167489861791 -0.011543178767197656 0.0053115563981490478 0.0099347818049930221 -0.020201917223324223 -0.010518667576458559 -0.0023325376767663066 0.017378348030382171 -0.013609494070114648 0.012505214065324524 0.0027353568745546596 0.014223003553598743 0.00070164471163736901 -0.0039099275866357284 0.0074816119766648913 0.010228137689528816 -0.015074725459110639 -0.013828445056112514 -0.0053895604033271458 0.0061955083102702398 0.012785080660012577 -0.0080354438916383445 0.00014954696298679132 0.0002027384135240833 -0.010304453204318687
leaf_weight=14958.583858251572 1193.5837336629629 6636.3806192278862 2423.3189559429884 3936.3956141620874 6926.4588746875525 1594.7029368430376 2155.8093223720789 20120.491220712662 3081.4977752119303 5394.7208537012339 3679.4001389294863 4311.9484059214592 59398.578660517931 49407.058779641986 44070.161456242204 16772.342852622271 58862.14209741354 12757.53545665741 14355.512581437826 27193.760785490274 30392.656260102987 2083.4341458678246 6575.5973482877016 12830.899391263723 23441.963206410408 4728.8914860635996 1762.2357948422432 14613.817215338349 6844.2052644044161 3763.4559673070908
leaf_count=62638 5208 26810 10042 16751 27740 6963 8638 86605 12839 22047 14744 17598 281644 200606 196725 68310 268249 51834 58174 114847 131929 8513 26468 51586 99421 21090 7322 59728 27810 15232
internal_value=0 -0.00563567 0.0108067 0.0118876 -0.00102495 -0.00379405 -0.013518 0.00847304 0.00200308 -0.0130115 -0.00693728 0.00328313 0.0154321 -0.0150431 0.0102432 -0.00184238 0.0135912 -0.00181002 -0.000329309 0.00526303 0.00826976 -0.00649274 -0.0101734 -0.00824895 0.00487056 0.00800644 0.00127481 0.00185357 -0.00261081 -0.0161347
internal_weight=0 198789 267479 249041 125423 18437.6 73365.7 126844 82943.4 10351.8 42479.8 32260.7 122197 64365.6 94583.3 38054.3 62798.5 16436.9 31127.9 44889.1 50513.1 4506.75 26042.9 19406.5 27753.9 8085.83 3356.94 17695.3 9000.01 9158.18
internal_count=2008111 812772 1195339 1117477 513080 77862 299692 550833 341638 42487 171442 135574 566644 263244 415259 154224 285000 66578 126484 187414 218534 18555 104864 78054 117019 35375 14285 72567 36448 37279
shrinkage=0.0148148


Tree=22
num_leaves=31
num_cat=0
split_feature=54 42 54 42 55 52 42 55 55 55 15 15 37 15 37 49 28 37 42 45 28 37 37 28 49 15 52 15 37 54
split_gain=150283 27656 26903.9 17442.9 7622.54 6416.31 6889.77 5430.46 5361.62 4792.6 4136.89 3714.45 3110.43 2967.49 2497.8 2075.74 1986.51 1664.33 1561.51 1423.01 1240.99 1185.76 1185.75 1090.49 1089.45 1079.93 1072.66 1116.33 1072.47 1028.6
threshold=0.58816869892079648 2.8029010331479989 0.8126832950696482 2.2499048351651334 0.75961538461538469 -0.49929971988795513 2.0126758453675748 0.83974358974358987 0.78888888888888908 0.78888888888888908 0.4360451127819549 0.40566838783706255 0.43817328854395926 0.82733333333333337 0.39288247213779132 -0.58868017184099064 32.813750000000006 0.75864460280262092 1.0000000180025095e-35 1.5000000000000002 44.659420289855071 0.79594407032334358 0.48531806859551641 28.594117647058827 -0.58868017184099064 0.58433870967741941 0.34623709623709625 0.66064516129032269 0.50030376670716903 0.22871093093402586
decision_type=2 2 2 2 2 2 2 2 2 2 2 2 2 2 2 2 2 2 2 2 2 2 2 2 2 2 2 2 2 2
left_child=1 7 3 8 10 6 19 15 18 14 29 23 -12 17 -5 -1 -16 -7 -2 -4 -11 -14 -8 -6 -20 -18 27 -13 -9 -3
right_child=2 4 5 9 11 13 22 28 -10 20 12 26 21 -15 16 -17 25 -19 24 -21 -22 -23 -24 -25 -26 -27 -28 -29 -30 -31
leaf_value=-0.012942044715013212 0.0019938781537304504 -0.0099769864781321018 0.0089212328819062124 -0.0030786459810923528 0.0038906677377973228 0.0059194103895001743 0.00088128336521054189 -0.0065225773747870424 0.0036595613467786995 0.0078255402389707119 -0.0056974833909627428 0.00076652829364607647 -0.00083310200309302796 0.010957426286882987 0.0052529734953823534 -0.0089430273576037479 -0.0014807452266113715 0.0092368158476912599 -0.01244422402295263 -0.0099572397077660711 0.0051205162683965917 0.0044083469966342704 0.0074215251029435617 -0.0035818999936411255 -0.0068021762526533393 0.0027941600648184232 0.0056827125023303591 0.0062120394194383807 0.00074905606989585419 -0.0055087269145195177
leaf_weight=14823.109667167068 1179.704977825284 6829.8105909079313 396.84324729442596 6040.2299037724733 2015.5500771999359 19165.340214788914 2809.9651341438293 2676.9039658904076 4366.9772699922323 29682.970252767205 11757.153129637241 14175.413946524262 19963.59656919539 78508.113877907395 23539.765830487013 49515.114050701261 7685.4881169646978 43371.110623419285 5400.8203829973936 3032.9655077159405 29943.124075934291 4683.3974635899067 18326.073719397187 11565.705146074295 6789.2925601750612 16020.047628045082 11513.147016465664 4316.1526118665934 5336.2097716331482 13435.864969521761
leaf_count=61313 4885 27501 1726 24484 8221 83871 11845 10751 18477 129474 47166 58644 80777 364973 99849 200131 31745 195156 22011 12293 128811 19289 81134 46623 27427 67494 48088 18179 21763 54010
internal_value=0 -0.00454053 0.00646435 0.00328356 -0.00135263 0.00897365 0.00455202 -0.00895795 -0.00535934 0.00464124 -0.00361969 0.00159497 -0.0017298 0.00974377 0.00259809 -0.00986438 0.00332385 0.00822014 -0.00830518 -0.00777292 0.00646713 0.000162873 0.00655202 -0.00247292 -0.00930188 0.00140821 0.00343626 0.00203758 -0.00168014 -0.00701459
internal_weight=0 172607 296259 130648 100256 165610 24565.8 72351.3 17736.8 112912 56669.8 43586 36404.1 141045 53285.5 64338.2 47245.3 62536.5 13369.8 3429.81 59626.1 24647 21136 13581.3 12190.1 23705.5 30004.7 18491.6 8013.11 20265.7
internal_count=2008111 702456 1305655 554657 408498 750998 106998 293958 72800 481857 228743 179755 147232 644000 223572 261444 199088 279027 54323 14019 258285 100066 92979 54844 49438 99239 124911 76823 32514 81511
shrinkage=0.009375


Tree=23
num_leaves=31
num_cat=0
split_feature=54 42 37 54 54 42 55 27 55 52 42 55 15 49 37 15 15 15 16 2 15 15 37 37 55 49 2 54 36 37
split_gain=128351 31759.9 16986 10318.6 9550.81 5925.82 5081.05 4721.92 4685.86 3631.14 3923.57 2958.16 2344.31 2074.62 1962.28 1603.99 1501.48 1484.56 1353.25 1351.07 1279.89 1235.33 1367.54 1174.23 1032.41 1002.98 973.605 960.984 894.217 880.808
threshold=0.65655633148576287 2.524928003624769 0.58828725836624407 0.37563448905725721 0.86813528911745996 2.2499048351651334 0.83974358974358987 28.967650331939065 0.75961538461538469 -0.3044372875290749 2.3502401828962087 0.75961538461538469 0.77125645438898471 -0.58868017184099064 0.6226704479685149 0.71171428571428585 0.28450000000000003 0.86366666666666669 148.50000000000003 1163.5000000000002 0.56775000000000009 0.32844444444444448 0.42504355400696869 0.40912342307192096 0.5634920634920636 -0.58868017184099064 1163.5000000000002 0.25466376870195701 1.0000000180025095e-35 0.839054903214417
decision_type=2 2 2 2 2 2 2 2 2 2 2 2 2 2 2 2 2 2 2 2 2 2 2 2 2 2 2 2 2 2
left_child=1 6 5 11 9 7 13 -2 14 10 -4 21 24 28 -5 19 -13 -6 -10 29 26 -3 -23 -8 -7 -9 -16 -15 -1 -11
right_child=2 3 4 8 17 12 23 25 18 15 -12 16 -14 27 20 -17 -18 -19 -20 -21 -22 22 -24 -25 -26 -27 -28 -29 -30 -31
leaf_value=0.003810265393021919 0.013501705528046712 -0.030586313009616031 -0.023961007475114152 -0.0086098274942109816 0.027575743100306194 -0.0046748041476676293 -0.023162324871950898 -0.036839148028951163 0.0054464721477273702 0.0099265999908116059 0.012804868721173951 -0.020290979740302976 0.018523306459356074 -0.031234101250456545 -0.0073400182070571043 0.025728036205058608 0.0010935781554056022 0.034672680592352317 0.016054498759758819 0.025010736421210395 0.011265551678086653 -0.025288236771357761 -0.0094100981612741264 0.00380534654283768 0.011586000908489087 -0.016175341009425009 0.0095882209482866607 -0.022662370189543157 -0.039579567994285629 0.019928359297406748
leaf_weight=429.3933403044939 3998.1577493101358 6735.7706116437912 2932.5668688267469 22454.873798161745 50742.297927260399 8032.8951378166676 1889.99610696733 3823.2871323227882 19195.711831822991 18200.294641762972 19445.374048545957 3711.0616320967674 17518.179498940706 17841.104377284646 10054.041137814522 39994.607747703791 12910.687441900373 52805.159167140722 23460.655336558819 14839.216857269406 10609.537731602788 8044.3425431996584 11670.939020782709 5669.8640217781067 5979.3930632174015 4476.8166245818138 4240.8374637067318 32216.859742537141 14428.681989014149 13436.974675700068
leaf_count=1792 17383 27353 11955 90505 235472 32940 7575 15799 79599 78969 83595 14880 77615 73081 40772 182832 52494 257667 100161 65821 43976 32486 46949 23104 25527 18438 17278 131417 61391 59285
internal_value=0 -0.0101438 0.0212875 -0.00154937 0.024753 0.00449342 -0.025926 -0.0129513 0.00415764 0.0186248 0.0079868 -0.0134762 0.0112976 -0.0286032 -0.00225816 0.0213779 -0.00368085 0.0311949 0.0112808 0.0176344 0.00346876 -0.0196315 -0.0158888 -0.00293668 0.00226409 -0.0256937 -0.00231795 -0.0257174 -0.0383256 0.0141745
internal_weight=0 205564 256225 133088 212396 43828.7 72475.9 12298.3 90015.7 108849 22377.9 43072.8 31530.5 64916 47359.3 86471.1 16621.7 103547 42656.4 46476.5 24904.4 26451.1 19715.3 7559.86 14012.3 8300.1 14294.9 50058 14858.1 31637.3
internal_count=2008111 844813 1163298 546453 975596 187702 298360 51620 372291 482457 95550 174162 136082 267681 192531 386907 67374 493139 179760 204075 102026 106788 79435 30679 58467 34237 58050 204498 63183 138254
shrinkage=0.0296296


Tree=24
num_leaves=31
num_cat=0
split_feature=54 42 37 54 42 15 55 55 27 15 37 49 15 49 15 42 37 49 49 54 52 37 52 15 57 37 36 37 37 28
split_gain=117684 32251.7 13788.2 10989.8 7639.69 6289.04 4867.8 4729.76 4110.26 3559.7 3005.17 2300.7 2222.36 1980.59 1962.18 1824.21 1793.55 1691.87 1500.08 1329.35 1299.16 1209.91 1074.4 1231.84 1013.45 972.86 936.992 927.289 896 1101.83
threshold=0.68444880834191602 2.4414009612931857 0.67683349683704896 0.38580664389267355 2.0126758453675748 0.81827042522694715 0.78888888888888908 0.6515151515151516 22.854357726620503 0.81071428571428583 0.68714267045640176 -0.6729033999405919 0.36090452261306533 -0.58868017184099064 0.49708333333333338 2.3502401828962087 0.69601136363636373 -0.58868017184099064 -0.58868017184099064 0.22871093093402586 0.42212085015240136 0.84559354044648172 0.28374019731849237 0.67340136054421784 3.1016748931770528 0.32731922808649155 1.0000000180025095e-35 0.33364254792826226 0.27282651845970624 39.578397212543557
decision_type=2 2 2 2 2 2 2 2 2 2 2 2 2 2 2 2 2 2 2 2 2 2 2 2 2 2 2 2 2 2
left_child=1 6 4 10 8 11 13 16 -2 17 19 15 -12 26 20 -4 28 -6 -10 -3 -9 -13 23 -16 -8 -11 -1 -19 -5 -30
right_child=2 3 5 7 9 -7 24 14 18 25 12 21 -14 -15 22 -17 -18 27 -20 -21 -22 -23 -24 -25 -26 -27 -28 -29 29 -31
leaf_value=0.0058164897753007483 0.027360092395645432 -0.041066390930740396 -0.045335449688042456 -0.029249145396892495 -0.0066880143013121384 0.048260336382251398 -0.020783317452422321 -0.0046932444597999083 -0.054169862888090337 0.0089348513896243039 -0.02250682479697208 0.028978601599872422 0.0084122828537735502 -0.037172884375206869 0.0064977048982712395 0.018211846118631452 0.0083837036682137146 -0.010444074859548303 -0.016705746445864728 -0.02081726800445121 0.017537839961928679 0.03964256625518596 0.029691318516352389 0.026892395860717712 0.0095989280972140038 0.036909374192338383 -0.057803979262311088 0.020873835219750635 -0.00022138053396636282 -0.021406646927387689
leaf_weight=472.44525328278542 2892.3921885043383 10182.744684711099 969.13893495500088 4703.8702359646559 7855.6852323412895 76170.963100969791 4452.1456219702959 13110.807082355022 3917.5107592195272 2757.9325702488422 8205.1063175052404 46512.513597145677 10427.716893330216 49139.584708079696 14348.185472652316 11256.112192168832 13297.876122400165 2083.1337539553642 4578.494846239686 17258.289603307843 8597.5268508791924 38338.952013581991 15866.363368064165 9876.9924760460854 4228.4093196243048 22401.470825567842 14240.605669930577 18042.589159741998 13557.634983301163 7549.6995886266232
leaf_count=1968 12862 41432 3984 18869 32807 373917 18038 53634 16323 11986 33039 210528 42547 202166 60576 49039 54952 8637 19077 69751 35993 177028 68195 42806 17278 104869 61630 78772 54947 30461
internal_value=0 -0.01296 0.032169 -0.000992725 0.0146325 0.0387008 -0.0372108 0.00721914 -0.0184014 0.0217119 -0.018978 0.0311999 -0.00520318 -0.041456 0.0148736 0.0131742 -0.00487646 0.0108044 -0.0339805 -0.0283313 0.00411132 0.033797 0.0207011 0.0148129 -0.00598374 0.0338429 -0.0557611 0.0176322 -0.0117081 -0.00779895
internal_weight=0 219516 237777 146983 64529.2 173248 72533.2 100909 11388.4 53140.8 46073.9 97076.7 18632.8 63852.6 61799.9 12225.3 39109.1 27981.4 8496.01 27441 21708.3 84851.5 40091.5 24225.2 8680.55 25159.4 14713.1 20125.7 25811.2 21107.3
internal_count=2008111 908282 1099829 607202 285333 814496 301080 420433 48262 237071 186769 440579 75586 265764 261204 53023 159229 120216 35400 111183 89627 387556 171577 103382 35316 116855 63598 87409 104277 85408
shrinkage=0.0444444


Tree=25
num_leaves=31
num_cat=0
split_feature=54 54 55 42 42 52 42 55 15 55 37 15 37 15 37 49 37 42 42 52 28 15 15 28 37 28 45 15 49 15
split_gain=108075 22805.5 19245.2 13765.2 6832.88 4942.74 4681.45 4422.79 4155.9 3875.58 2659 2463.7 2270.13 2153.29 1832.03 1706.64 1529.48 1495.59 1486.19 1419.86 1313.04 1460.62 1208.91 1136.88 1100.74 1172.11 1000.24 929.164 881.278 860.591
threshold=0.57604607795222462 0.82478722627513612 0.6515151515151516 2.1383330595080285 3.0677824455408698 -0.51877251471147601 2.0126758453675748 0.78888888888888908 0.38708333333333339 0.70294117647058829 0.75512303686906868 0.86366666666666669 0.69184218224367422 0.4360451127819549 0.61910324877614609 -0.58868017184099064 0.75864460280262092 2.8617925509761908 1.0000000180025095e-35 0.46187607573149742 30.888862179487184 0.63633333333333353 0.67690476190476201 36.352526926263472 0.31177588906284953 33.585416666666674 1.5000000000000002 0.90128939828080246 -0.58868017184099064 0.40900000000000003
decision_type=2 2 2 2 2 2 2 2 2 2 2 2 2 2 2 2 2 2 2 2 2 2 2 2 2 2 2 2 2 2
left_child=2 3 4 9 15 6 26 12 19 18 17 16 24 -6 -15 -1 -7 -10 -2 -4 -9 -22 -14 -19 -5 -26 -3 -8 -20 -17
right_child=1 5 8 7 13 11 27 20 10 -11 -12 -13 22 14 -16 29 -18 23 28 -21 21 -23 -24 -25 25 -27 -28 -29 -30 -31
leaf_value=-0.023021788178554155 0.0044863991651956578 0.016787516512106408 -0.011235616688610145 -0.0080988029947666323 -0.013231148421463671 0.011411043188160146 0.008735657503177785 0.016073573449051665 -0.0080478410172264113 0.0050865630600214935 0.0081333966808082251 0.020761995486339294 0.0046348875433752396 -0.0076041573579324687 0.0029697753197592569 -0.018934824896548092 0.017326549990555769 0.0077835132141726064 -0.022666599658608896 -0.00040039404795945996 0.0062736150073651499 0.012790078271198706 0.012237906578963485 -0.0013732727055905786 0.005784489587432399 -0.002421171130068356 -0.017869651077578343 0.018036727147508959 -0.012375622667217423 -0.013521066285364081
leaf_weight=13832.108687743545 1270.4312225282192 329.67669273912907 12660.556417584419 4364.0514142811298 13196.325769379735 22426.666003882885 12671.588947296143 15956.343429759145 7513.8825564980507 4670.7967214584351 19306.721685528755 54447.627648517489 16926.441823631525 16383.694631800056 8884.2270095199347 16197.107535198331 48807.710055306554 7140.9371889084578 5174.1130632907152 6401.670530974865 21852.307267948985 27075.177093505859 12998.498978376389 14338.123177275062 13682.575053110719 11072.305869042873 2615.0261802822351 5378.782144472003 6731.7310927957296 28463.574380815029
leaf_count=60369 5323 1475 51168 17654 53592 103243 57346 72728 30600 19952 81251 277308 72108 65958 36176 67511 235200 29773 22078 25943 95221 123181 58009 58885 57870 46121 10837 26032 27609 117590
internal_value=0 0.0111692 -0.00788194 0.00580677 -0.0132305 0.0163525 0.00793115 0.0080239 -0.00018352 -0.00958874 0.00274226 0.0177593 0.00431072 -0.00709237 -0.00388635 -0.0172669 0.0154642 -0.000847762 -0.0147909 -0.00759682 0.0114029 0.00987965 0.00793741 0.001671 0.000583647 0.00211428 -0.0139896 0.0115073 -0.0168479 -0.0154845
internal_weight=0 288452 164319 141775 96957 146677 20995.1 123928 67361.9 17847.1 48299.7 125682 59043.9 38464.2 25267.9 58492.8 71234.4 28992.9 13176.3 19062.2 64883.8 48927.5 29924.9 21479.1 29118.9 24754.9 2944.7 18050.4 11905.8 44660.7
internal_count=2008111 1329295 678816 617854 401196 711441 95690 542892 277620 74962 200509 615751 251762 155726 102134 245470 338443 119258 55010 77111 291130 218402 130117 88658 121645 103991 12312 83378 49687 185101
shrinkage=0.01875


Tree=26
num_leaves=31
num_cat=0
split_feature=54 42 37 54 54 55 37 52 52 52 42 55 42 49 15 36 28 15 15 15 52 15 15 37 15 15 37 36 37 2
split_gain=99443.6 28485.4 11473.3 10126.3 7335.32 4004.28 3918.06 3528.69 3118.74 3095.99 2990.86 2337.36 2071.87 2062.22 1920.45 1652.16 1494.72 1396.58 1389.4 1320.06 1240.77 1145.56 1107.24 1061.03 1053.42 993.404 931.89 914.048 900.77 852.465
threshold=0.69787785815667813 2.3502401828962087 0.54387227060456911 0.43120628453520232 0.88772619636490901 0.83974358974358987 0.80014367816091969 0.11185729981837342 -0.43559955995599547 -0.39162096951085756 2.3502401828962087 0.5634920634920636 2.4414009612931857 -0.58868017184099064 0.44808026755852842 1.0000000180025095e-35 20.584211986681467 0.73171428571428587 0.82077441077441093 0.57014056224899601 0.27595186781609193 0.4360451127819549 0.8907142857142859 0.40912342307192096 0.56425806451612914 0.63754194630872496 0.68714267045640176 1.0000000180025095e-35 0.83348402652200126 1163.5000000000002
decision_type=2 2 2 2 2 2 2 2 2 2 2 2 2 2 2 2 2 2 2 2 2 2 2 2 2 2 2 2 2 2
left_child=1 5 9 7 8 13 11 21 10 12 -4 24 15 27 28 -2 -13 20 -11 -18 -10 -3 -6 -7 -5 29 -16 -1 -9 -8
right_child=2 3 4 6 22 23 25 14 17 18 -12 16 -14 -15 26 -17 19 -19 -20 -21 -22 -23 -24 -25 -26 -27 -28 -29 -30 -31
leaf_value=0.0061027859663112787 0.028669419872389121 -0.034168025280218978 -0.031702359382148174 -0.016006007563190199 0.037405032791266307 -0.030246337488499246 0.010829350117781231 -0.018961555023260076 0.016157477401601211 0.0056046566364995332 0.016450976629081897 0.032672545920615949 0.0040504414036236953 -0.031787852755160301 -0.0029533608766852326 -0.03774125194190546 -0.002396828264712803 0.033966754174217489 0.030143135550271025 0.014085749619498985 0.029691587942787284 -0.01702192062560897 0.046963797426622864 0.0065072579030462305 3.7931454722005133e-05 0.032780288524466836 0.018993080859839265 -0.051877775760670777 0.0031846808147346396 0.030647025131384478
leaf_weight=488.99968762695789 746.98577052354813 12904.480170562863 2601.4867457449436 11940.115568220615 48572.165803804994 1834.3141262233257 15218.445508792996 13401.152956902981 21524.789539724588 8805.6972502619028 16086.497587710619 4182.2546007633209 7502.8136112689972 49055.90394102037 7262.9673336297274 5027.6755528748035 16045.953382000327 42262.63028588891 7349.5523597300053 17786.229493528605 25923.182859808207 14219.053391844034 37114.1381495893 5314.6231882274151 17544.882195562124 8403.7588346600533 6249.2110636234283 13612.998442232609 4184.0504706352949 5008.5143141597509
leaf_count=2058 3384 52885 10805 48338 240825 7387 64443 54241 97083 37605 71261 18077 31973 204726 29533 21132 66815 204556 34576 76815 119266 57806 195660 21829 71939 37434 26060 61047 16920 21632
internal_value=0 -0.0104958 0.0287583 -0.000482323 0.0324345 -0.0324792 0.00782324 -0.0141959 0.0252326 0.00451695 0.00974772 0.00234476 -0.0103894 -0.0358246 -0.00461583 -0.0291506 0.0091733 0.0284583 0.016768 0.00626838 0.0235518 -0.0251795 0.0415453 -0.00292318 -0.00645915 0.0207392 0.00719659 -0.0498672 -0.0136923 0.0157365
internal_weight=0 224658 223518 154351 194085 70306.8 96130.2 58220.9 108399 29432.7 18688 67499.4 13277.5 63157.9 31097.4 5774.66 38014.4 89710.6 16155.2 33832.2 47448 27123.5 85686.3 7148.94 29485 28630.7 13512.2 14102 17585.2 20227
internal_count=2008111 939985 1068126 642938 939456 297047 405493 237445 502971 128670 82066 281984 56489 267831 126754 24516 161707 420905 72181 143630 216349 110691 436485 29216 120277 123509 55593 63105 71161 86075
shrinkage=0.0416667


Tree=27
num_leaves=31
num_cat=0
split_feature=54 42 54 37 15 42 55 37 52 42 15 49 49 55 49 42 15 15 55 15 37 37 37 15 37 54 51 15 37 36
split_gain=91209.8 28005.5 9770.04 9705.22 4905.91 4876.81 4552.6 3527.24 3472.78 3124.88 2514.19 2108.79 2052.16 1982.46 1843.08 2006.03 1718.85 1604.61 1518.83 1381.3 1303.48 1168.08 1127.34 1064.36 1017.39 980.468 956.02 934.392 924.85 887.862
threshold=0.71744573914065202 2.4414009612931857 0.45081636945324965 0.67124635961600709 0.82733333333333337 2.0126758453675748 0.90454545454545465 0.78792673571154592 0.20604537840718742 1.0000000180025095e-35 0.86366666666666669 -0.58868017184099064 -0.58868017184099064 0.78888888888888908 0.27676710877280869 2.0126758453675748 0.29624120603015081 0.46494147157190641 0.6515151515151516 0.49708333333333338 0.7000477554918817 0.666904761904762 0.35303308823529417 0.58111111111111124 0.28892250798453517 0.34812107602725034 0.3706513693560326 0.63633333333333353 0.37637429020176394 1.0000000180025095e-35
decision_type=2 2 2 2 2 2 2 2 2 2 2 2 2 2 2 2 2 2 2 2 2 2 2 2 2 2 2 2 2 2
